seq_id,feat_0,feat_1,feat_2,feat_3,feat_4,feat_5,feat_6,feat_7,feat_8,feat_9,feat_10,feat_11,feat_12,feat_13,feat_14,feat_15,feat_16,feat_17,feat_18,feat_19,feat_20,feat_21,feat_22,feat_23,feat_24,feat_25,feat_26,feat_27,feat_28,feat_29,feat_30,feat_31,feat_32,feat_33,feat_34,feat_35,feat_36,feat_37,feat_38,feat_39,feat_40,feat_41,feat_42,feat_43,feat_44,feat_45,feat_46,feat_47,feat_48,feat_49,feat_50,feat_51,feat_52,feat_53,feat_54,feat_55,feat_56,feat_57,feat_58,feat_59,feat_60,feat_61,feat_62,feat_63,feat_64,feat_65,feat_66,feat_67,feat_68,feat_69,feat_70,feat_71,feat_72,feat_73,feat_74,feat_75,feat_76,feat_77,feat_78,feat_79,feat_80,feat_81,feat_82,feat_83,feat_84,feat_85,feat_86,feat_87,feat_88,feat_89,feat_90,feat_91,feat_92,feat_93,feat_94,feat_95,feat_96,feat_97,feat_98,feat_99,feat_100,feat_101,feat_102,feat_103,feat_104,feat_105,feat_106,feat_107,feat_108,feat_109,feat_110,feat_111,feat_112,feat_113,feat_114,feat_115,feat_116,feat_117,feat_118,feat_119,feat_120,feat_121,feat_122,feat_123,feat_124,feat_125,feat_126,feat_127,feat_128,feat_129,feat_130,feat_131,feat_132,feat_133,feat_134,feat_135,feat_136,feat_137,feat_138,feat_139,feat_140,feat_141,feat_142,feat_143,feat_144,feat_145,feat_146,feat_147,feat_148,feat_149,feat_150,feat_151,feat_152,feat_153,feat_154,feat_155,feat_156,feat_157,feat_158,feat_159,feat_160,feat_161,feat_162,feat_163,feat_164,feat_165,feat_166,feat_167,feat_168,feat_169,feat_170,feat_171,feat_172,feat_173,feat_174,feat_175,feat_176,feat_177,feat_178,feat_179,feat_180,feat_181,feat_182,feat_183,feat_184,feat_185,feat_186,feat_187,feat_188,feat_189,feat_190,feat_191,feat_192,feat_193,feat_194,feat_195,feat_196,feat_197,feat_198,feat_199,feat_200,feat_201,feat_202,feat_203,feat_204,feat_205,feat_206,feat_207,feat_208,feat_209,feat_210,feat_211,feat_212,feat_213,feat_214,feat_215,feat_216,feat_217,feat_218,feat_219,feat_220,feat_221,feat_222,feat_223,feat_224,feat_225,feat_226,feat_227,feat_228,feat_229,feat_230,feat_231,feat_232,feat_233,feat_234,feat_235,feat_236,feat_237,feat_238,feat_239,feat_240,feat_241,feat_242,feat_243,feat_244,feat_245,feat_246,feat_247,feat_248,feat_249,feat_250,feat_251,feat_252,feat_253,feat_254,feat_255,feat_256,feat_257,feat_258,feat_259,feat_260,feat_261,feat_262,feat_263,feat_264,feat_265,feat_266,feat_267,feat_268,feat_269,feat_270,feat_271,feat_272,feat_273,feat_274,feat_275,feat_276,feat_277,feat_278,feat_279,feat_280,feat_281,feat_282,feat_283,feat_284,feat_285,feat_286,feat_287,feat_288,feat_289,feat_290,feat_291,feat_292,feat_293,feat_294,feat_295,feat_296,feat_297,feat_298,feat_299,feat_300,feat_301,feat_302,feat_303,feat_304,feat_305,feat_306,feat_307,feat_308,feat_309,feat_310,feat_311,feat_312,feat_313,feat_314,feat_315,feat_316,feat_317,feat_318,feat_319,feat_320,feat_321,feat_322,feat_323,feat_324,feat_325,feat_326,feat_327,feat_328,feat_329,feat_330,feat_331,feat_332,feat_333,feat_334,feat_335,feat_336,feat_337,feat_338,feat_339,feat_340,feat_341,feat_342,feat_343,feat_344,feat_345,feat_346,feat_347,feat_348,feat_349,feat_350,feat_351,feat_352,feat_353,feat_354,feat_355,feat_356,feat_357,feat_358,feat_359,feat_360,feat_361,feat_362,feat_363,feat_364,feat_365,feat_366,feat_367,feat_368,feat_369,feat_370,feat_371,feat_372,feat_373,feat_374,feat_375,feat_376,feat_377,feat_378,feat_379,feat_380,feat_381,feat_382,feat_383,feat_384,feat_385,feat_386,feat_387,feat_388,feat_389,feat_390,feat_391,feat_392,feat_393,feat_394,feat_395,feat_396,feat_397,feat_398,feat_399,feat_400,feat_401,feat_402,feat_403,feat_404,feat_405,feat_406,feat_407,feat_408,feat_409,feat_410,feat_411,feat_412,feat_413,feat_414,feat_415,feat_416,feat_417,feat_418,feat_419,feat_420,feat_421,feat_422,feat_423,feat_424,feat_425,feat_426,feat_427,feat_428,feat_429,feat_430,feat_431,feat_432,feat_433,feat_434,feat_435,feat_436,feat_437,feat_438,feat_439,feat_440,feat_441,feat_442,feat_443,feat_444,feat_445,feat_446,feat_447,feat_448,feat_449,feat_450,feat_451,feat_452,feat_453,feat_454,feat_455,feat_456,feat_457,feat_458,feat_459,feat_460,feat_461,feat_462,feat_463,feat_464,feat_465,feat_466,feat_467,feat_468,feat_469,feat_470,feat_471,feat_472,feat_473,feat_474,feat_475,feat_476,feat_477,feat_478,feat_479,feat_480,feat_481,feat_482,feat_483,feat_484,feat_485,feat_486,feat_487,feat_488,feat_489,feat_490,feat_491,feat_492,feat_493,feat_494,feat_495,feat_496,feat_497,feat_498,feat_499,feat_500,feat_501,feat_502,feat_503,feat_504,feat_505,feat_506,feat_507,feat_508,feat_509,feat_510,feat_511,feat_512,feat_513,feat_514,feat_515,feat_516,feat_517,feat_518,feat_519,feat_520,feat_521,feat_522,feat_523,feat_524,feat_525,feat_526,feat_527,feat_528,feat_529,feat_530,feat_531,feat_532,feat_533,feat_534,feat_535,feat_536,feat_537,feat_538,feat_539,feat_540,feat_541,feat_542,feat_543,feat_544,feat_545,feat_546,feat_547,feat_548,feat_549,feat_550,feat_551,feat_552,feat_553,feat_554,feat_555,feat_556,feat_557,feat_558,feat_559,feat_560,feat_561,feat_562,feat_563,feat_564,feat_565,feat_566,feat_567,feat_568,feat_569,feat_570,feat_571,feat_572,feat_573,feat_574,feat_575,feat_576,feat_577,feat_578,feat_579,feat_580,feat_581,feat_582,feat_583,feat_584,feat_585,feat_586,feat_587,feat_588,feat_589,feat_590,feat_591,feat_592,feat_593,feat_594,feat_595,feat_596,feat_597,feat_598,feat_599,feat_600,feat_601,feat_602,feat_603,feat_604,feat_605,feat_606,feat_607,feat_608,feat_609,feat_610,feat_611,feat_612,feat_613,feat_614,feat_615,feat_616,feat_617,feat_618,feat_619,feat_620,feat_621,feat_622,feat_623,feat_624,feat_625,feat_626,feat_627,feat_628,feat_629,feat_630,feat_631,feat_632,feat_633,feat_634,feat_635,feat_636,feat_637,feat_638,feat_639,feat_640,feat_641,feat_642,feat_643,feat_644,feat_645,feat_646,feat_647,feat_648,feat_649,feat_650,feat_651,feat_652,feat_653,feat_654,feat_655,feat_656,feat_657,feat_658,feat_659,feat_660,feat_661,feat_662,feat_663,feat_664,feat_665,feat_666,feat_667,feat_668,feat_669,feat_670,feat_671,feat_672,feat_673,feat_674,feat_675,feat_676,feat_677,feat_678,feat_679,feat_680,feat_681,feat_682,feat_683,feat_684,feat_685,feat_686,feat_687,feat_688,feat_689,feat_690,feat_691,feat_692,feat_693,feat_694,feat_695,feat_696,feat_697,feat_698,feat_699,feat_700,feat_701,feat_702,feat_703,feat_704,feat_705,feat_706,feat_707,feat_708,feat_709,feat_710,feat_711,feat_712,feat_713,feat_714,feat_715,feat_716,feat_717,feat_718,feat_719,feat_720,feat_721,feat_722,feat_723,feat_724,feat_725,feat_726,feat_727,feat_728,feat_729,feat_730,feat_731,feat_732,feat_733,feat_734,feat_735,feat_736,feat_737,feat_738,feat_739,feat_740,feat_741,feat_742,feat_743,feat_744,feat_745,feat_746,feat_747,feat_748,feat_749,feat_750,feat_751,feat_752,feat_753,feat_754,feat_755,feat_756,feat_757,feat_758,feat_759,feat_760,feat_761,feat_762,feat_763,feat_764,feat_765,feat_766,feat_767,feat_768,feat_769,feat_770,feat_771,feat_772,feat_773,feat_774,feat_775,feat_776,feat_777,feat_778,feat_779,feat_780,feat_781,feat_782,feat_783,feat_784,feat_785,feat_786,feat_787,feat_788,feat_789,feat_790,feat_791,feat_792,feat_793,feat_794,feat_795,feat_796,feat_797,feat_798,feat_799,feat_800,feat_801,feat_802,feat_803,feat_804,feat_805,feat_806,feat_807,feat_808,feat_809,feat_810,feat_811,feat_812,feat_813,feat_814,feat_815,feat_816,feat_817,feat_818,feat_819,feat_820,feat_821,feat_822,feat_823,feat_824,feat_825,feat_826,feat_827,feat_828,feat_829,feat_830,feat_831,feat_832,feat_833,feat_834,feat_835,feat_836,feat_837,feat_838,feat_839,feat_840,feat_841,feat_842,feat_843,feat_844,feat_845,feat_846,feat_847,feat_848,feat_849,feat_850,feat_851,feat_852,feat_853,feat_854,feat_855,feat_856,feat_857,feat_858,feat_859,feat_860,feat_861,feat_862,feat_863,feat_864,feat_865,feat_866,feat_867,feat_868,feat_869,feat_870,feat_871,feat_872,feat_873,feat_874,feat_875,feat_876,feat_877,feat_878,feat_879,feat_880,feat_881,feat_882,feat_883,feat_884,feat_885,feat_886,feat_887,feat_888,feat_889,feat_890,feat_891,feat_892,feat_893,feat_894,feat_895,feat_896,feat_897,feat_898,feat_899,feat_900,feat_901,feat_902,feat_903,feat_904,feat_905,feat_906,feat_907,feat_908,feat_909,feat_910,feat_911,feat_912,feat_913,feat_914,feat_915,feat_916,feat_917,feat_918,feat_919,feat_920,feat_921,feat_922,feat_923,feat_924,feat_925,feat_926,feat_927,feat_928,feat_929,feat_930,feat_931,feat_932,feat_933,feat_934,feat_935,feat_936,feat_937,feat_938,feat_939,feat_940,feat_941,feat_942,feat_943,feat_944,feat_945,feat_946,feat_947,feat_948,feat_949,feat_950,feat_951,feat_952,feat_953,feat_954,feat_955,feat_956,feat_957,feat_958,feat_959,feat_960,feat_961,feat_962,feat_963,feat_964,feat_965,feat_966,feat_967,feat_968,feat_969,feat_970,feat_971,feat_972,feat_973,feat_974,feat_975,feat_976,feat_977,feat_978,feat_979,feat_980,feat_981,feat_982,feat_983,feat_984,feat_985,feat_986,feat_987,feat_988,feat_989,feat_990,feat_991,feat_992,feat_993,feat_994,feat_995,feat_996,feat_997,feat_998,feat_999,feat_1000,feat_1001,feat_1002,feat_1003,feat_1004,feat_1005,feat_1006,feat_1007,feat_1008,feat_1009,feat_1010,feat_1011,feat_1012,feat_1013,feat_1014,feat_1015,feat_1016,feat_1017,feat_1018,feat_1019,feat_1020,feat_1021,feat_1022,feat_1023
sp|P0C349|CM3C_CONST,0.08946804,0.011136916,0.03048716,0.00019649028,0.036925513,0.0013888781,-0.06870479,0.030358465,-0.058304768,-0.023490576,-0.034140963,0.004357721,0.07670713,0.08445308,0.14123406,-0.03212172,-0.016974324,0.08368546,0.034763485,-0.05163608,0.04982865,0.024616176,-0.05322884,-0.097843744,0.0026936575,-0.008834611,0.020955047,0.0345431,0.024141243,0.036893252,-0.058972623,0.028123982,-0.14004406,0.12436625,0.04851139,-0.08703949,0.03376544,-0.018039836,-0.05545561,-0.10265205,0.005450219,0.17922549,-0.029409051,-0.0062773735,0.016589295,-0.064417325,-0.006645266,-0.04301176,0.05830263,-0.06788746,-0.008639019,0.0019186597,-0.043187495,-0.16700768,0.000653465,-0.083084196,-0.012766487,-0.13927558,-0.048995733,-0.030326026,0.0018186314,-0.027740808,0.030526146,0.033176947,-0.06541514,0.0072510536,0.0657158,0.0714511,0.062328454,-0.015342443,-0.005235685,0.022679627,-0.040142253,-0.035699617,0.037777096,-0.010313726,-0.022520036,-0.012554139,0.05534792,-0.031840596,-0.030225893,0.027898856,-0.013762823,-0.015291338,0.039071806,-0.0016390737,-0.032200072,0.01096315,0.12970966,-0.020180866,-0.012786993,-0.02399978,-0.028462669,0.030505776,0.019596668,0.118972056,0.28317004,0.0024889878,0.115186036,0.05566359,0.047947094,-0.022473678,0.007235194,0.02839297,0.0023435606,-0.11396709,-0.06367454,-0.04600044,0.0039757253,0.06473371,-0.039058868,-0.05161303,0.03604416,0.06660598,0.0036714429,-0.052219,0.039000675,0.061767966,-0.056996834,-0.073004246,-0.017901653,0.062017024,-0.059726644,-0.004571144,0.008352331,0.084017195,0.0187669,0.049472857,0.059904534,0.0056284578,-0.021435171,0.013465087,0.0609563,0.054063972,0.02271927,-0.13107477,-0.009100729,0.047671657,0.0025465128,-0.024849402,-0.07667059,-0.00860075,0.07161484,0.048204128,-0.03156246,0.4559989,-0.09785745,0.07752823,-0.0036009755,0.021102311,0.00021196529,0.008804119,0.055601712,-0.04226018,-0.043640256,0.035348665,0.009206225,-0.020657333,0.025453148,0.013181959,-0.05738608,0.055777684,0.12158083,0.014511951,0.017351685,0.044753443,-0.023135401,0.0256226,0.07823477,-0.07169474,-0.07319534,-0.032795135,-0.045538966,0.006436549,-0.09267366,0.05979575,-0.12242455,-0.13611259,0.010386058,0.0130906,0.024157545,-0.15211946,-0.03851104,-0.07468893,0.0054851263,0.03655501,-0.060714792,0.006194435,-0.01215833,-0.022825753,0.04770417,-0.02377534,0.009243152,0.060741734,0.049840137,0.011009642,0.1238614,-0.01257255,7.744257e-06,-0.0037863592,-0.09948187,-0.0059945597,-0.013255395,0.01408596,0.055822317,-0.04557048,-0.043954123,0.067190915,-0.027177403,0.031178111,-0.13016452,-0.006162379,-0.034837242,-0.06522185,-0.039994355,0.0012118736,-0.004948795,0.067632444,-0.024972923,-0.06082462,0.40041474,-0.027346551,0.008138674,-0.004073268,-0.012727283,0.11848384,0.0374479,0.057638388,-0.04058004,0.03528108,-0.0037411163,-0.0072917747,-0.007404608,-0.10309493,-0.045366764,0.03678071,-0.34058318,-0.08014041,-0.032870278,-0.014977704,0.014870035,0.00857593,0.045622583,0.0033066797,0.06588525,0.0054277102,-0.038083553,0.031703413,0.08211251,-0.038524173,-0.0019679086,-0.029932903,0.055131048,0.080785654,-0.073313884,0.03290012,-0.0018667061,0.0066490215,-0.0018829458,-0.04989941,0.00018312565,-0.14605041,-0.04864268,0.06443355,-0.08466453,0.031661298,-0.06878158,-0.0056592613,-0.047462147,-0.15414721,-0.013436773,0.05461672,0.015617638,0.0070807636,-0.023016175,0.4692029,-0.086055994,0.0048152735,0.021184409,0.07315731,-0.021273114,-0.033930782,0.03754883,-0.0344377,-0.07954862,0.08334863,-0.043748688,-0.0017246222,0.046511304,0.071631655,0.019262636,0.24044639,0.030016735,-0.021617914,-0.051507603,-0.0508035,0.0104516195,-0.052215364,-0.044952482,-0.020963574,-0.016902843,-0.009170446,0.03061364,-0.028285712,0.0645277,0.016889105,-0.03789667,0.020074802,0.0019201282,0.102019705,0.056699563,-0.043756578,0.045675207,0.014763389,-0.0023180873,-0.05053452,-0.061095625,-0.09636543,0.04588994,-0.060822833,0.06142695,0.0029947364,0.05844542,-0.019038765,-0.017601753,-0.023382172,0.013653755,0.008747555,0.2809359,0.1341654,-0.1218526,0.08613046,0.04797424,-0.051791757,-0.015727809,0.07325164,-0.012967743,-0.06441348,0.011295653,-0.081255235,0.0657322,0.0358152,0.00806511,0.035941303,-0.0039119166,0.07125501,-0.04545747,-0.01768062,0.026773766,-0.048156124,0.003130123,-0.17637873,-0.005883174,0.02674978,-0.0009265405,-0.056846093,-0.011962317,0.05412304,-0.071035385,-0.020996341,-0.05947579,0.007693971,0.004671432,0.056616325,-0.09528207,0.07107377,0.012099445,-0.019162524,-0.018850708,-0.14921464,0.09194982,0.0069579557,0.030636137,0.025131742,-0.083527006,-0.011307828,-0.0464289,0.06713257,-0.034960162,-0.08747793,-0.03813249,0.00044595575,0.022662098,-0.020748854,-0.0374215,-0.025910072,-0.07479816,-0.009521381,0.02409937,-0.043361943,0.028447976,0.02282547,0.041702896,-0.02945061,-0.0031062514,0.01835498,0.010405856,0.114076495,0.006697614,-0.034726363,-0.026658112,0.056840975,-0.051710118,0.08777804,-0.061891526,-0.015602137,0.02996552,-0.04505721,0.036602635,-0.025448902,-0.0007654534,0.039717358,-0.061633516,-0.068244725,0.01573104,0.005461425,0.029634781,0.05238509,0.006545028,-0.05932112,-0.026473947,-0.01801488,0.014114433,0.019831408,-0.0620953,0.024130205,0.03558803,0.06568738,0.019487018,0.044921596,-0.029318681,0.0013239402,0.07945196,0.008960712,-0.06170431,-0.36351296,0.0022220733,-0.057003673,-0.05170385,-0.00072887394,-0.020925216,-0.045767922,-0.017647212,0.01164484,-0.011689679,0.06653153,-0.027510023,0.007101851,0.06672286,0.012786683,0.06493622,0.038481135,-0.0038695026,-0.049546584,-0.03771583,0.03483108,0.019809945,0.029200867,-0.017082045,0.05422252,0.09653535,0.032146428,0.024693556,0.0003960704,0.07247523,-0.03942807,-0.06664498,-0.02759943,0.04596575,0.0070461202,0.07418708,-0.06780822,-0.035167653,0.023185277,0.021239832,0.046435896,0.026461272,-0.1071895,-0.009703056,-0.0068214475,-0.08538461,-0.0043971045,-0.030098656,-0.059698235,-0.026901864,-0.03307354,0.0028603745,-0.013419181,0.018206464,0.016018985,-0.0054045296,0.020208323,-0.029040797,-0.043218166,0.11561006,-0.057618517,0.0030508873,-0.111530535,-0.16569684,0.19076069,-0.03779331,-0.054344762,-0.03114207,-0.0009779012,-0.06720502,0.10593208,-0.011418833,-0.011401974,-0.023853542,-0.05342026,0.034873635,0.01124284,0.004115278,-0.025760936,-0.026377512,-0.082903825,0.03224443,0.02035931,0.004076496,-0.0037629083,0.04813129,0.014975872,-0.021389192,0.042640805,0.075641714,0.050071586,0.047087763,0.046570327,-0.012217205,0.019467289,-0.027017161,0.011807341,-0.020706778,-0.57852817,-0.04379211,-0.024024269,0.011751664,0.004681379,0.061227437,0.03799127,-0.027099801,-0.0014368907,-0.053267326,0.047968406,0.03796086,0.097207226,-0.016204337,-0.16349222,0.009957221,-0.040709566,0.03844745,0.1056883,0.022133714,0.008608102,0.032483082,0.07546964,0.082550086,-0.008332853,0.03646742,-0.089438714,-0.12385852,-0.016732156,0.008203052,-0.06493845,0.014534432,-0.073396794,0.132885,-0.0064511225,-0.025615519,0.014504045,0.017042222,0.06883662,-0.036112152,-0.035474382,0.004016308,0.06485808,-0.052351397,-0.019221133,-0.08585503,-0.030404577,-0.01645006,-0.122482784,0.051178038,-0.006243734,0.07798179,-0.12500916,-0.014689301,-0.04843517,0.04238346,0.011534032,-0.03323733,-0.011372943,-0.10559293,0.021852268,-0.017791996,-0.07061921,-0.041206647,-0.08008699,-0.058909673,-0.017221661,0.015168731,-0.011460443,-0.018010875,0.0027577206,0.012676501,0.025587924,0.006900012,-0.018006532,0.0456465,-0.029785788,-0.03673393,-0.031037347,-0.005749106,-0.09717554,-0.031279843,-0.04226515,0.012945514,0.037275538,-0.059459418,0.01745104,0.010962487,0.0039958037,-0.0063685044,-0.06495443,0.045127105,0.024564335,-0.017315598,0.053493638,0.03783453,0.00017772925,0.0131202685,-0.04112902,0.0478036,0.005616672,0.05407412,0.040300127,0.07893056,-0.076667584,0.013599028,0.0005052062,0.07504215,-0.046847407,0.034822676,0.083314195,-0.004600493,0.02358733,-0.06225143,0.050464552,-0.046896983,-0.07993627,0.035412025,-0.01009012,-0.07065109,0.062308133,-0.011419113,-0.032638457,-0.013092021,-0.0166728,0.1026685,0.0493603,0.028139902,-0.003261798,0.012603668,-0.018772213,-0.013070949,0.038411308,0.11303786,0.06622007,-0.032038763,0.033767372,-0.029560842,0.06173269,-0.03380439,-0.021188015,-0.06400462,-0.03580862,-0.049024325,-0.015468565,0.0076734778,0.034496732,-0.066562794,-0.0029952265,-0.054887563,0.05312295,0.1235738,0.0233514,0.12759668,-0.022023186,-0.03708774,-0.01895032,-0.018599523,-0.040234372,0.011798415,0.048871487,0.009272953,0.050579786,-0.01699247,-0.035966054,-0.096856356,0.012613635,-0.014580816,-0.018698031,-0.033036042,0.031570535,-0.033262152,-0.0066733398,-0.0018814796,-0.013780407,-0.016631255,0.007634889,-0.15990028,-0.1254143,0.027142053,-0.009405337,-0.032042783,-0.049369603,-0.4322628,-0.051263977,-0.015566673,0.17364432,0.0683515,-0.019574681,-0.006280841,0.022765616,0.0850114,0.113104194,0.05399887,-0.010265359,-0.040031042,0.020854061,-0.14590465,-0.042012285,0.034213137,-0.017612102,-0.07207122,-0.052570593,-0.03446244,-0.007140402,0.11310708,0.005487943,0.017894575,0.022277018,0.017358849,-0.051515896,-0.0449039,-0.04545811,-0.012452044,0.0142509835,-0.026050812,0.07586381,0.0039024435,-0.0128628835,-0.00015597542,-0.04725909,-0.00034032544,0.027727297,-0.0933683,-0.01993414,-0.06827163,0.034850445,0.004892115,-0.027565034,0.0482289,0.0001442898,0.024006555,0.00033042455,-0.07201221,-0.013173416,-0.03988454,5.3473353,0.04487398,0.043903172,-0.0048887064,0.012193306,-0.13879,-0.028388293,0.020801267,0.10079837,-0.009732769,0.15657352,0.00086908817,0.036828514,0.013083669,0.03916861,0.2422287,-0.14322841,-0.04292823,0.05783901,0.04949722,0.68586284,0.021694578,0.04206186,0.014394098,0.043633178,0.086704195,-0.010804155,-0.06899536,0.027082944,0.10354251,0.058348473,-0.037401896,-0.04248478,-0.1490675,-0.04155597,0.0125452215,-0.10370427,0.019173084,0.011181832,0.019768147,0.06706334,-0.039106805,0.04372299,-0.025420837,0.040656608,-0.042759944,-0.2693605,-0.0554276,0.037876766,0.041091796,0.027114786,0.023572562,0.0010184034,0.028998377,0.3771205,-2.2586892,0.012278393,-0.027625738,0.012917295,-0.01744594,0.020645684,-0.0019104878,0.041959044,-0.017562179,-0.04349294,-0.028884187,0.0052343574,-0.0006029485,0.05293371,-0.0015726691,0.018168911,-0.064848326,-0.044627964,-0.0049501215,0.060103934,0.048645217,0.0034515616,-0.011912499,0.011037613,0.03833683,0.04967254,0.0028593203,0.05002406,0.031322684,-0.076500945,0.01914738,0.038623016,-0.059924588,-0.0074121207,0.060507614,0.03410871,-0.022056552,0.047980934,-0.020244582,-0.025748277,0.07354184,-0.011698541,0.042580247,0.009159957,0.008177139,0.2352988,-0.0055854023,0.036233302,-0.01818742,-0.040594775,0.038111985,0.0073905517,0.116923,0.00072541524,-0.051291425,0.11227257,-0.00941966,-0.099042915,0.003270862,0.16057491,0.05234611,-0.038099293,-0.007668905,0.12665194,-0.05572033,0.08762779,0.056378487,0.006501138,-0.015205607,-0.011420338,0.0031360267,-0.020625658,0.018342778,-0.109651804,0.1469829,-0.006709648,-0.074625604,-0.041922968,-0.03518103,-0.11251154,0.045378726,-0.109283306,-0.030626794,0.02980724,-0.09536829,0.061609197,0.025926193,0.06192441,0.07288098,0.0043406836,-0.016457716,-0.018558564,-0.0735962,-0.0024217207,0.037271526,0.042297643,-0.041698456,-0.022537122,-0.013245608,-0.016546095,0.04145144,-0.013057685,0.118876725,0.09948095,-0.022851607,-0.042180866,-0.07783325,0.054929007,-0.08333014,0.095969506,-0.043372393,-0.0058210404,0.041931268,0.01237329,-0.012741114,0.0016042842,-0.10940984,0.033551496,-0.053952474,0.001259908,-0.012176424,-0.09329942,-0.039261162,0.04190861,-0.016477292,-0.017487543,-0.10184189,-0.076428026,-0.10555575,0.081648014,0.019194195,-0.010211339,-0.011349712,-0.016567333,-0.03010223,0.08106744,0.0035597782,-0.028900163,0.07120056,-0.07070524,-0.054121554,0.038880225,-0.017680658,-0.027669668,-0.0067183226,0.121454984,0.048924606,-0.12267855,0.07249836,-0.0074601546,0.059021056,0.07253751,0.08047753,-0.0035426186,0.04003114,-0.0369951,-0.09018096,0.023534032,-0.031179449,-0.038500104,-0.010461939,-0.0031266704,-0.054222777,-0.025597446,0.0053273304,0.007962559,-0.0046622218,-0.042279944,-0.0013020141,0.0766184,-0.12850459,-0.016331831,-0.003631472,0.040210888,-0.05168542,0.0019877113,0.01605291,-0.04123981,-0.028919762,-0.15352462,-0.04395501,-0.035671335,-0.015029836,-0.022342587,-0.07436814,-0.014316498,0.016539492,0.075677015,-0.009304206,0.008826849,-0.015680293,-0.021115528,-0.045063764,-0.07562773,0.09428849,-0.061665058,-0.0973691,0.016655048,-0.014768042,0.02206328
sp|P0C828|CA4A_CONST,0.07903765,-0.026505476,-0.0063193757,-0.012475221,0.04582301,-0.0034053682,-0.03201516,-1.1014266e-06,-0.0049295705,-0.017802317,-0.020520015,-0.0602056,-0.029906971,0.019710248,0.072936356,-0.05206964,-0.047761973,0.036369983,-0.0003590483,-0.022216346,0.030673835,-0.017531818,-0.0116351675,-0.022848537,-0.07550798,-0.06087794,0.056480777,0.014114395,-0.010759565,-0.021201521,-0.025529243,0.03682231,-0.07063697,-0.050674964,-0.012441622,-0.031084253,0.016700586,0.013492741,0.02284021,-0.07521085,0.026342671,-0.03272755,-0.010301961,0.0028028807,0.035311725,0.018495595,0.0070285653,-0.00914227,0.029033741,-0.07095458,-0.051312387,-0.054485388,0.008068021,0.0004861422,-0.006459005,0.0014270376,-0.0037816553,-0.102314755,-0.017011244,-0.02803608,0.008150752,-0.062016267,-0.029547086,0.027297987,-0.022748645,0.021436082,0.069028884,-0.06395921,-0.0054836506,-0.014913844,0.008313548,0.02647373,-0.03936601,-0.040625997,0.007982366,0.04473385,-0.022848208,0.023601674,0.00845841,0.017833889,-0.039881855,0.034292042,0.023412148,-0.047900837,0.0044052633,0.020177431,-0.011340573,0.10448873,0.094508246,-0.041140776,-0.0031407864,0.021320917,-0.058338206,-0.051192977,-0.0189073,0.010574684,0.06266535,0.00060186547,0.046500925,0.019192519,0.011539819,-0.013193871,0.016110105,0.006647244,0.013397594,-0.054165076,0.011274836,-0.007925696,0.03361682,0.004191657,0.015014855,-0.0022660096,0.025072355,0.024944916,0.00862333,-0.056091804,0.00113009,0.03878248,-0.033238504,-0.1456241,0.0047062114,0.033255696,-0.020922435,0.030789698,-0.004478223,-0.02370244,0.061208874,-0.05134247,-0.029241474,-0.0069282097,-0.04344558,0.009326218,-0.003339402,0.011279528,0.00017178615,0.040678106,-0.04957238,-0.031242535,0.0321204,-0.011541169,-0.0340579,-0.017290456,0.0064827916,-0.4726448,-0.016420934,0.18372966,-0.027432254,0.038579468,0.03637033,0.0067679505,0.007870884,0.021409895,-0.009506759,0.027230253,-0.062471833,0.0003541837,-0.0020064174,-0.023423553,-0.054179437,0.032129675,-0.033125725,0.012398266,-0.0014298385,0.03854818,0.01946008,-0.008999264,-0.007964713,-0.016474377,0.008304524,-0.001870564,0.04631763,-0.035104755,-0.0453414,0.014227053,1.3496674e-05,0.022667592,0.022898803,-0.052259177,0.036096167,0.006275257,-0.0064995885,-0.057806,-0.015767835,0.0018909851,0.008623337,-0.006277893,-0.026654985,0.0047931424,-0.07502676,0.025574682,0.03511834,0.039824884,-0.010301866,-0.025122518,-0.006848609,0.026065528,-0.019205902,-0.0076766037,0.03872093,0.019228134,-0.019040547,0.0033679942,-0.010016592,-0.022061935,0.0022373062,0.02146166,-0.03572912,0.039800234,-0.03756766,0.015784368,-0.022128645,-0.05110191,-0.016530164,-0.02571343,-0.027645476,0.019056035,0.01374899,0.013440562,0.057730883,0.02279413,0.041649245,0.014553522,0.035539586,-0.06975266,-0.06350068,0.060182706,-0.009064729,-0.023655958,0.025132284,0.052101724,0.00636696,0.013182239,-0.011841389,-0.01070134,-0.011300337,0.046304554,-0.14080463,0.0089535955,0.0074570575,0.03516358,-0.0038837462,-0.014254698,-0.057450335,0.05038317,0.05071161,-0.0082649,-0.0023426593,0.005133315,0.054143745,0.013502383,0.009762623,0.013539576,-0.030171633,0.046072677,-0.04748287,0.020884786,-0.017147006,0.02468488,0.0008630374,0.042816322,0.041793283,-0.020574465,0.008742064,-0.0009918474,-0.017567001,-0.024086688,-0.031913977,-0.015296941,0.024465535,-0.03475969,0.017719543,0.04342012,-0.03712011,0.002211391,0.020444129,0.02069132,-0.047852732,0.024272393,0.017250134,0.11216497,-0.037767075,0.043037087,0.034305803,0.009207405,-0.013299714,0.071826786,-0.007271823,0.010661532,0.007617531,0.006612388,0.034215383,0.06790019,-0.074955635,0.010392381,-0.10714894,-0.027000384,-0.00987351,0.016880138,-0.04152279,0.003180698,0.012226492,0.019440366,-0.0026742795,-0.021550618,0.056294248,0.014887459,-0.03855984,0.023732943,-0.033834446,0.006300992,0.087346144,0.0061858706,0.022497753,-0.04358297,-0.0024639315,-0.018883731,0.019600146,-0.029267795,-0.0113358265,-0.040967982,0.051794898,0.002732108,0.008765992,0.023803659,-0.010974543,-0.038029578,-0.01971442,-0.030511763,0.19365108,0.04590506,-0.06251341,0.06908638,-0.08243539,-0.04651206,-0.027654134,-0.020766184,0.019517582,-0.020467563,-0.048829965,-0.031399213,-0.031046307,0.0003036949,-0.019562943,0.019316576,-0.0124509465,-0.026056305,-0.05398681,-0.004573466,0.022589475,0.02349769,-0.07231145,-0.047581587,0.059012823,0.018437857,-0.019051034,0.0038849702,-0.002828997,0.02215813,-0.0054468047,0.010352829,-0.0036886318,-0.0034459059,-0.035080038,0.033842478,-0.03396976,-0.0026372147,-0.0019583644,0.03514052,0.00035472045,0.04304489,-0.054479465,-0.06384718,-0.010918649,-0.0046018297,-0.03769104,-0.035195917,-0.026929012,0.043618377,-0.016854476,0.012481795,0.0011792774,-0.009436963,-0.00057895994,-0.057387594,0.0044898298,0.029706687,-0.014725492,0.05520263,0.043692503,-0.02011352,0.040476236,-0.010401633,0.0063199163,0.0101796,0.023898613,-0.008131721,0.007719872,-0.011711038,0.008267397,-0.014322216,0.02293138,-0.0037062806,0.013973492,0.062229324,-0.012017354,-0.014622141,-0.017621748,-0.009777981,0.010901353,-0.0115297595,-0.022028958,0.017780367,0.022975301,-0.015555241,0.047337383,0.03441391,-0.0076400796,-0.010129759,-0.01150881,-0.005095569,0.0028634416,-0.04390163,-0.015520801,-0.045060217,0.0010880504,-0.043664068,0.017968085,0.03865097,0.004461657,-0.03521898,-0.06116577,0.013429771,0.032638397,0.02187323,-0.02139301,-0.08881603,-0.049583316,-0.0081459945,-0.027798543,-0.013238344,-0.017127741,0.025339374,-0.012522061,0.015053937,-0.028290346,-0.0113272285,-0.024375942,0.038175758,-0.011108012,-0.0009768943,-0.0020517954,0.027713813,-0.10724835,-0.0020413978,0.0064321137,-0.0066330233,0.039399114,0.04043114,-0.0012412252,-0.048420873,-0.015821949,-0.024325807,0.0050441627,0.0017348543,0.016787186,0.0584755,-0.041428328,-0.05251222,-0.014977062,0.0064254645,0.048327345,-0.015385712,-0.013960964,0.001235261,0.048149142,0.015820438,0.051359918,-0.03839697,-0.0034105342,-0.04425466,0.0021185307,-0.025906097,-0.048205752,-0.07225244,-0.0008528959,-0.013417013,-0.05747156,-0.03711256,0.020033706,-0.06930316,0.026339944,0.002197335,-0.0025508255,-0.007300446,0.06785773,0.003709679,0.06461119,0.017397275,0.0034587153,0.061765797,-0.009810993,0.02089265,-0.003507962,-0.018837051,-0.023372903,-0.035939787,0.010356735,-0.0070261047,-0.033290308,0.016128648,-0.023716334,0.026054986,-0.036979336,-0.023011817,-0.02031594,0.004440024,0.021343894,0.04068893,0.05908132,-0.02221491,0.012514939,-0.009849802,-0.090818435,-0.00800615,0.035378214,0.054386947,0.036345243,-0.007284244,-0.014349269,0.08688665,0.011784634,-0.02141244,-0.006190434,-0.15727879,0.044930987,-0.041385997,0.010883944,0.11242658,0.01812663,0.009137495,-0.03149208,0.023013052,-0.014957696,0.076384686,0.009103114,0.06791823,-0.07254186,-0.047195315,-0.0140232565,-0.03601156,-0.006641113,0.032324284,0.029905465,0.005412466,-0.03934201,0.048064813,0.030532777,-0.012736184,0.022389999,-0.005730361,-0.061365988,-0.012791287,0.026789298,0.00092742604,-0.020931132,0.0052255425,0.04276802,0.030558553,0.022362957,-0.078933746,-0.02447074,0.02474714,-0.054690395,0.030945318,0.00039956855,0.00091578887,-0.028682997,-0.04307284,-0.24020228,0.0145253735,-0.016696298,-0.019635038,0.027947709,0.008595734,0.034727283,-0.07650276,0.005905032,-0.05573637,-0.04664892,0.024509702,0.002905869,0.011937007,-0.03511522,0.00042604224,-0.0077796755,0.012122297,0.013886446,-0.0388273,-0.038969863,0.026371172,0.020015325,-0.058646996,-0.027218249,-0.011686198,0.0013133015,-0.0367874,-0.008816253,-0.033433147,-0.042849865,-0.030663803,0.0092446,-0.0031615323,-0.025409654,-0.028860662,0.011837289,-0.0131766535,0.0042276233,-0.0068671764,-0.011360707,0.023686862,0.027970746,0.0068303025,-0.04329424,-0.019253846,0.007106302,0.018719828,0.0188963,0.019665636,0.004659666,0.001770846,-0.017846685,-0.026314246,0.06275542,0.042013254,0.018083548,0.071608365,0.0013792128,-0.0021108612,-0.015012674,-0.021490555,0.04005607,-0.03817512,0.022010874,-0.025404274,-0.03321465,-0.0070387702,-0.045473058,-0.04642962,0.049316768,-0.029799253,0.023947503,0.031281214,-0.01174353,-0.024287758,-0.02896418,-0.060333185,-0.0037547622,-0.017379284,0.03193354,-0.007384562,-0.012519914,-0.019646205,-0.010765347,0.00093444134,-0.009787022,-0.02048678,0.056797028,0.015360849,0.007140932,0.02461615,0.0288862,-0.007458551,-0.0335602,-0.01464557,-0.0314853,0.002827305,0.033842962,0.0032171742,0.03668838,-0.0096949125,-0.0093220165,0.022876034,-0.0067045167,0.021933565,0.036432613,-0.007504647,0.06267638,0.03437325,-0.013872305,0.006642438,-0.00064352556,-0.003466475,0.010109812,-0.041403983,0.048829626,0.06666036,0.047589295,-0.0052917697,-0.077462465,-0.051852424,0.049746275,-0.043212153,-0.024552496,0.01566801,-0.020224027,-0.03689445,-0.021645429,0.0026062126,0.0341576,0.05989969,-0.06415371,-0.06267979,0.05105831,-0.057585407,0.01923662,-0.008696738,-0.21325245,0.053628802,-0.025044398,0.06751017,-0.010186401,-0.026423326,0.0527117,0.011155447,0.05634508,0.050574623,-0.005556145,0.027790561,-0.025901463,0.010420971,-0.008342968,-0.00998845,-0.00116863,-0.05721908,-0.024482213,-0.051332574,0.003103631,0.022100272,0.075165406,0.039341375,0.086684085,0.034895062,0.06677955,0.024957312,-0.020785324,0.03892344,0.029482381,-0.022179876,-0.029854758,0.0029607457,-0.015727833,0.061922055,0.008152916,-0.054978136,-0.05379238,0.0077143153,-0.024975253,-0.025153384,0.028307391,0.013012439,0.068369344,-0.03466284,0.012932604,0.03914338,0.029929396,-0.00265721,0.01807796,0.021009913,-0.058177933,4.259425,0.00287037,-0.006748757,0.046504352,-0.04170462,-0.06538204,-0.03402504,0.01966171,0.020119837,-0.03410532,0.037378136,0.007136811,0.021632914,0.014075077,-0.020415789,0.22235382,-0.053934608,-0.025143914,0.03889247,-0.02908982,0.37982002,0.06863901,0.001984727,0.05987127,0.0112935435,-0.020873034,1.453304e-05,-0.022279441,0.025896227,0.011052275,0.0053888275,-0.016750876,-0.013063913,-0.08682243,0.029427132,0.04488409,-0.07820991,0.007932318,0.024946654,-0.068866506,-0.0052489573,-0.0057103126,0.009793336,-0.021816391,0.0033180108,-0.017437879,-0.16153978,0.019068161,0.003708509,0.03838212,0.011514465,0.032985024,-0.042192224,0.03720568,0.14874177,-0.7693262,-0.022473885,-0.0036802816,-0.016881838,0.0029076468,0.032935258,0.017595485,-0.007824059,0.03582909,0.0002470925,0.044124983,-0.0036565426,-0.024408195,0.0984445,-0.01330124,0.0030540836,0.0072251945,0.00681963,-0.0078088786,0.0071585765,0.0371963,-0.010678511,-0.0057764174,0.032577902,0.021986587,-0.02004428,-0.004542192,0.0051346733,-0.03796328,0.01015652,0.049118865,-0.011419242,-0.011714596,0.00699838,0.052456737,0.034798883,0.0077053066,0.0060072597,0.018121917,0.026649956,0.03412089,0.0131654125,0.05078693,-0.0026472504,0.013565833,0.08601057,-0.049373187,-0.059780993,-0.0207911,-0.01021088,-0.011227652,-0.036340605,0.03362762,0.04427356,-0.00049383286,0.019700607,-0.06063761,-0.054443937,-0.014897286,0.052590575,0.026772086,-0.037588585,-0.018496463,0.04308283,-0.07154196,0.042206187,0.005521935,-0.025301212,-0.00532858,0.021184979,-0.004463262,0.01780964,-0.00038351264,-0.01010082,0.052973736,0.041034743,-0.012424551,0.01186695,-0.009197733,-0.030957302,0.057884067,-0.029189983,-0.0045685056,0.004738092,-0.0018972137,-0.014582636,-0.0018781269,-0.03739715,-0.036259476,0.028940039,0.023135364,0.055350866,-0.008591627,-0.041746136,0.059599306,-0.0033276493,0.03419312,-0.023211677,-0.00030970384,-0.027961902,0.048960328,-0.015928369,0.013338299,-0.05339067,-0.07438932,-0.013220786,-0.031418297,-0.0051149977,0.026703134,-0.0041111615,9.342157e-05,0.061096784,-0.048787016,-0.01769657,0.039011437,-0.046913885,-0.123471715,-0.055999324,-0.07375348,0.021948088,0.0009595305,0.018124944,-0.016032528,-0.034679648,0.019670613,-0.019209879,-0.059894897,-0.0028298798,-0.03236217,0.008935912,-0.024004675,-0.016761905,-0.0065186694,-0.025357481,-0.05428163,-0.018919153,-0.0023841804,-0.008503869,0.019115902,-0.046442937,-0.0021227035,0.042897884,-0.024790643,-0.018889334,-0.027086655,0.019912267,0.021262253,-0.021929516,-0.05949805,-0.03527642,0.037386592,0.027849969,-0.01022612,0.050696768,0.030167885,-0.027910996,0.024536895,-0.011584669,0.003053158,-0.015267001,0.024706574,-0.006106954,0.024547402,0.017537348,0.012007621,0.010488058,-0.014708446,-0.013427695,0.045538373,0.005585401,-0.024407249,-0.016037518,-0.0045662755,0.032313544,0.03447432,0.021870006,-0.00055070885,0.006739208,0.008746077,-0.038841605,-0.015692834,-0.032793924,0.0026915786,-0.053411283,-0.010678546,0.03556507,-0.0032582204,-0.058512412,-0.024693267,0.00562028,0.02395743,-0.005640485,-0.051600546,-0.03980143,-0.012373136,-0.05329177,-0.04093978,-0.058219284,-0.0032492368,0.023989992
sp|P0C829|CA4B_CONST,0.07434109,-0.013280278,0.028042274,-0.003630703,0.025317626,-0.013302503,-0.04029011,-0.0073542506,-0.010979273,-0.022271963,-0.015557256,-0.05347124,-0.014084062,0.00084494473,0.07473289,-0.036676332,-0.044527747,0.028397363,-0.0018410026,-0.02000012,0.038696785,-0.015076905,-0.021582514,-0.024242781,-0.061238993,-0.039824728,0.045315072,0.023168478,0.0036987509,-0.012695691,-0.035643134,0.051185284,-0.06521391,-0.03462984,0.0042478843,-0.026999552,0.020960817,-0.0015590859,-0.0009791012,-0.076110974,0.012305306,-0.013638468,-0.019046713,0.01171427,0.022159044,0.009685976,-0.0074946424,-0.019155644,0.015859406,-0.052516792,-0.050166298,-0.041125577,0.0034141883,-0.02353189,-0.013078829,0.009014726,0.00022580483,-0.11304316,-0.031377602,-0.036427703,-0.0017451433,-0.042655185,-0.000693996,0.024391381,-0.025860406,0.01716865,0.07675133,-0.04703147,0.0075187045,-0.005601791,0.004363872,0.025791112,-0.03072122,-0.033410054,0.0076890886,0.03277461,-0.017322022,0.040431418,-0.04296389,-0.0025382773,-0.027784847,0.024935214,0.036018286,-0.025834758,0.016755465,0.011096383,-0.022956334,0.12460812,0.09874128,-0.038988747,-0.0050494657,0.013745026,-0.059306614,-0.029576482,-0.0026868004,0.01153771,0.12920262,0.0070676464,0.051513597,0.02474586,0.036903374,-0.013938251,0.03344853,-0.010159997,-0.005377499,-0.04946323,-0.00024246381,-0.020107644,0.025825184,0.009512489,-0.004465989,-0.025267735,0.041569434,0.04431987,0.015612092,-0.056972936,-0.002058957,0.046518877,-0.034486517,-0.15072793,-0.013521532,0.030583637,-0.02216256,0.00565666,-0.013388347,0.007687488,0.06253052,-0.04230093,-0.041528214,-0.0020225665,-0.042335417,0.015268606,-0.0024258294,0.021796152,0.0019395361,0.01900523,-0.029086625,-0.04555532,0.030847456,-0.015140388,-0.022895599,-0.015782433,0.02755445,-0.47661757,-0.022055294,0.20347852,-0.033495326,0.0314916,0.046198744,0.029311039,0.006540686,0.013019015,-0.0076006535,0.028056772,-0.039747972,0.0033458103,-0.008418926,-0.024278684,-0.03708533,0.029010829,-0.037738726,0.025911601,0.016099509,0.028371688,-0.0018017241,0.0025202413,-0.018979747,-0.008831199,0.011471521,-0.019883443,0.022056315,-0.02382593,-0.05013298,0.028376272,-0.0050050975,0.027371587,0.024544612,-0.0634905,0.0129427565,0.010082506,0.011572439,-0.07951858,-0.038860578,0.0057128617,0.0021800657,0.012808951,-0.031095011,0.009643973,-0.06568465,0.0103812255,0.040949207,0.00796434,-0.008338854,-0.022448963,-0.0023294913,0.010147326,-0.0135378605,0.0038709652,0.034876525,0.018973963,-0.016227188,0.014908167,-0.0072006453,-0.019585982,0.012998208,0.01141026,-0.01112408,0.0487105,-0.0325958,-0.0027310117,-0.03246471,-0.028547278,-0.0046454743,-0.021509407,-0.022689546,0.0038720493,0.013917948,0.016459659,0.029969724,0.01224678,0.021692097,0.006560942,0.049678188,-0.054864977,-0.07367101,0.0444773,-0.014299247,0.0019409261,0.017205305,0.043576397,-0.0029828858,0.012507511,-0.0007655526,-0.012716158,-0.0089224195,0.034890752,-0.17204742,0.0034005875,0.0077676126,0.03695357,-0.00055631425,-0.0005896028,-0.05211986,0.027066804,0.041621502,-0.019690245,0.013296785,7.532991e-05,0.06801246,0.0045852833,-0.0010018663,0.012582836,-0.016845621,0.037134793,-0.031805616,0.004814246,-0.018536337,0.010405903,-0.028938973,0.033983354,0.036194436,-0.012061922,-0.0001718918,-0.0068361266,-0.028811362,-0.022936711,-0.0434434,-0.00091592275,0.014055019,-0.053513534,0.021050492,0.037538297,-0.045475222,0.008385155,0.0065507474,0.024548577,-0.05197697,0.031787645,0.025606778,0.10614831,-0.020593507,0.04577413,0.023366002,0.0057543674,-0.029179242,0.04144182,-0.00859307,0.004450284,-0.00017339154,0.007978421,0.031725623,0.119913846,-0.07526359,0.050266173,-0.10013827,-0.035948366,0.0059180786,0.029762812,-0.032511733,0.00072746456,0.03105303,0.01819251,-0.031450674,-0.035596732,0.038106993,0.015462614,-0.029339105,0.00598675,-0.027951237,0.0054954314,0.09228923,0.0067489273,0.021785589,-0.043579698,-0.020996368,-0.03298452,0.023161672,-0.029254032,-0.0215431,-0.033342797,0.05942952,0.024266496,0.013030234,0.03859985,-0.015775913,-0.028853448,-0.027719047,-0.015803777,0.20896253,0.060654942,-0.06845882,0.04532889,-0.08654904,-0.048083708,-0.029628718,-0.03213385,0.006706581,-0.025522672,-0.05368518,-0.035895426,-0.030708423,0.010752173,-0.0023506503,0.019840578,-0.019035768,-0.009143203,-0.035322465,-0.027924465,0.029107528,-0.009760014,-0.08443955,-0.030512877,0.05146803,0.011898628,-0.003608863,0.0055790567,0.003676184,0.012817583,-0.014472974,0.0075036185,-0.02305753,-0.0024742833,-0.024709493,0.016637914,-0.027262539,-0.0015613761,0.0008131502,0.023322858,-0.009908096,0.04090066,-0.035965234,-0.057309635,-0.0081127295,-0.0041703717,-0.030153176,-0.02248836,-0.013685952,0.051429946,-0.026303913,0.008596343,-0.0028936234,0.013098894,0.011969268,-0.045221638,-0.018062407,-0.0021212164,-0.02882183,0.031165523,0.048771918,-0.0013367961,0.034643825,-0.021739274,0.028818311,0.0021921294,0.021185905,-0.0037791335,0.014094604,-0.01069218,0.004473839,-0.026853966,0.004647081,0.01096237,0.020969933,0.06557185,-0.018726561,-0.0031634788,-0.00112224,-0.0090216035,0.010843352,-0.0102316635,-0.024667392,-0.0005759564,0.018130621,-0.023906073,0.026686953,0.028868292,-0.0047638644,-0.02791325,-0.02062405,-0.031018397,-0.012171864,-0.022267835,-0.008009105,-0.02490385,-0.00076265814,-0.042424727,0.02209055,0.034560025,0.0026254794,-0.023343604,-0.046708323,0.020916158,0.025554247,0.0429064,-0.03863993,-0.107278,-0.037341826,-0.0051039415,-0.024496634,-0.026616497,-0.039848607,0.032690324,-0.0007333318,0.01091013,-0.030934086,0.007538736,-0.02384089,0.028627364,0.002282196,0.0027253376,0.0008435863,0.02633644,-0.09384611,0.001382955,-0.014582234,0.0053260014,0.043568924,0.039406165,-0.009317706,-0.026760515,0.0039008511,-0.015796488,-0.0021262495,-0.010083548,0.018011056,0.03844768,-0.038899865,-0.056141224,-0.026581833,0.001990497,0.04431675,-0.02754764,-0.024596391,0.006550078,0.04301101,0.016661715,0.037883785,-0.05219071,0.008595734,-0.046093274,-0.0052387635,-0.030751182,-0.035126127,-0.04880699,0.00726091,-0.0013642816,-0.06543365,-0.032793876,0.00841239,-0.060763534,0.015081721,0.0049516205,-0.018598791,-0.0062787053,0.063981816,-0.0016500957,0.053965285,-0.003590537,-0.032215778,0.031142311,-0.014316652,0.004139204,-0.013097327,-0.0032088081,-0.035632838,-0.020350665,0.011473509,-0.0187176,-0.031224815,-0.025263237,-0.023968032,0.03784482,-0.010018637,-0.03040339,-0.025828423,-0.010473935,0.016901039,0.043075196,0.033439342,-0.055319592,0.008096685,-0.022668459,-0.07598844,-0.0036258122,0.030499976,0.030215135,0.04776262,-0.0030335214,-0.028631466,0.0837262,-0.013976516,-0.035617728,0.007051662,-0.16345173,0.028132055,-0.034129754,0.023795784,0.091237135,0.015799398,0.023204518,-0.041361827,0.026145179,-0.0076784077,0.08652609,0.036113165,0.054436423,-0.044310622,-0.0462128,0.010026506,-0.027715236,-0.022954945,0.025543317,0.03340339,-0.005076106,-0.03284952,0.051860023,0.03410402,-0.028104756,0.028409429,0.019625694,-0.034964025,-0.009803098,0.01993379,-0.006844331,-0.017446365,-0.030181225,0.0599095,0.010700718,0.011307512,-0.050580546,-0.014830743,0.035506442,-0.04760048,0.021428695,0.009011334,0.00792213,-0.01918314,-0.03954703,-0.19470154,-0.022719277,-0.0054224525,-0.037921075,0.023341654,0.0042221616,0.031065077,-0.101454616,-0.020772547,-0.036479734,-0.022151291,0.02295236,0.00836788,0.010813085,-0.05409538,-0.014706933,-0.010281137,0.01964918,0.0002323549,-0.013138421,-0.04884299,-0.019407166,0.018593179,-0.041882567,-0.033365183,-0.0015102162,0.018607382,-0.03251768,-0.012625256,-0.05666854,-0.0359577,-0.03778208,0.011711276,-0.0021102563,-0.034696862,-0.016629323,-0.015346644,-0.016527537,0.028647574,0.008191437,-0.018095784,0.014611498,0.023831518,0.003957597,-0.05146599,-0.029275162,0.01247674,0.036835864,0.035808213,0.028372377,-0.007850898,0.008603298,-0.0043154196,-0.028417328,0.0568078,0.03741439,0.03539359,0.052536447,0.04074088,-0.016301883,-0.004763304,-0.029615585,0.040179368,-0.043555945,0.02154161,-0.011000048,-0.02023833,-0.015071485,-0.017709536,-0.024731401,0.042784855,-0.029017512,0.017703244,0.012193866,-0.02957702,-0.029937528,-0.000110320565,-0.041273408,-0.010266723,-0.019863978,0.024948608,0.008620562,0.011555465,-0.015397243,-0.015600305,0.00795344,0.00065481954,-0.018677345,0.057416294,0.012637278,0.011751488,-0.004945688,0.0111579485,-0.018865839,-0.03321083,-0.01994222,-0.026287887,-0.0049159564,0.038469985,-0.011935547,0.03407273,-0.003218202,-0.035405748,0.0104519725,-0.009329268,0.02842801,0.065814555,-0.029028105,0.05846938,0.028786467,-0.0018106415,0.023459252,0.0189896,0.016609166,0.017237395,-0.026985163,0.03413688,0.05562947,0.0062886854,-0.011945978,-0.085194066,-0.031337004,0.03920143,-0.050375532,-0.018138856,0.0050544906,-0.010485154,-0.015494419,-0.020918543,0.0021369217,0.045430124,0.0650952,-0.046759825,-0.06493508,0.0628041,-0.047978885,0.0047037774,-0.0046677943,-0.2627591,0.033451665,-0.008494376,0.038441516,0.0088010365,-0.0153384935,0.04002794,-0.007471371,0.055211827,0.05041644,-0.0052745887,0.014880613,-0.031579472,0.00023080717,0.0038475085,-0.015222285,0.0019063165,-0.04938193,-0.0038842573,-0.046275623,-0.0012303118,0.009397482,0.04363005,0.035308544,0.07037712,0.0483965,0.06488499,0.011728991,-0.005397886,0.03444065,0.031648632,-0.01683606,-0.030666616,0.01219956,-0.043713972,0.057860963,-0.008249124,-0.056936648,-0.06243293,-0.0013431483,-0.03068725,-0.016153347,0.008124426,0.037715454,0.040875513,-0.012154531,0.015965497,0.039828252,0.034289934,-0.008867411,0.0020777986,0.024383157,-0.044162482,4.5052357,0.0003778273,0.013633824,0.059360474,-0.048800863,-0.040979996,-0.01954022,0.024782466,0.02600805,-0.010572937,0.06648703,0.016628224,0.018740095,-0.00037360858,-0.012378846,0.22897404,-0.063746996,-0.017055089,0.031617668,-0.025952008,0.42635468,0.0646015,-0.0019217285,0.048207413,0.030563137,-0.00978268,-0.015568172,-0.03159392,0.020796677,0.024726925,0.032423526,-0.012923684,-0.0012299013,-0.06592529,0.011915284,0.022743385,-0.07700376,0.025439847,0.012747724,-0.050234824,0.024341263,-0.008671625,-0.0004343983,-0.031275984,0.01054412,-0.024004612,-0.15843593,-0.00200838,-0.01556404,0.038102753,0.03574625,0.026153157,-0.045247383,0.01463958,0.21874025,-1.0557976,-0.0004959348,-0.023137487,-0.018510977,-0.0028484825,0.027032401,0.015836129,0.0039084647,0.032149512,-0.0025212225,0.036256865,-0.0011984343,-0.013990571,0.10277191,-0.010633032,0.011806193,-0.013939914,-0.0064775813,-0.004851675,0.003127196,0.026907375,0.0066432124,-0.00092165865,0.022386607,0.037641596,-0.0074018342,-0.014671952,0.0031662616,-0.009797175,1.9807096e-05,0.049684774,-0.0028585342,-0.007332817,0.01734304,0.059665687,0.033313543,0.00041873267,0.030319126,0.00872495,0.007926462,0.050266195,0.015743049,0.035170272,0.010444936,0.012360788,0.052139435,-0.024126546,-0.044738725,-0.029548122,-0.012353996,0.0128395865,-0.027592063,0.034107912,0.042073905,-0.015449814,0.02678923,-0.04293242,-0.043501485,-0.02429171,0.03890614,0.017498983,-0.0026543094,-0.018717483,0.024687747,-0.050179437,0.05152217,0.020629324,-0.007760903,-0.007198072,0.022971656,-0.013080084,0.00046274584,0.001004028,-0.01811849,0.045866482,0.023373099,-0.006164897,-0.0063606827,-0.010155033,-0.023162276,0.038518596,-0.02821208,-0.0017104221,0.012876962,-0.018064,-0.011875137,0.0020804256,-0.019040665,-0.035624277,0.030403018,0.022168163,0.037890416,-0.009234713,-0.025892863,0.03344565,-0.013823512,0.028932037,0.004357559,0.006133296,-0.023803955,0.041170828,-0.036268786,0.019633284,-0.017992457,-0.07108385,-0.011862898,-0.0293538,-0.0194323,0.0073660277,0.0005950064,0.007828744,0.016905515,-0.04186435,-0.01570584,0.014808531,-0.044739176,-0.09003436,-0.04415885,-0.07147526,0.02392467,-0.00688097,0.015727242,-0.0022087318,-0.018854586,0.0014156605,-0.017490756,-0.06722142,-0.015006192,-0.028382534,0.03045529,-0.032114368,-0.019395567,-0.0049800263,-0.034166716,-0.051964052,-0.014805148,-0.004790883,-0.011300418,0.036176298,-0.05665492,-0.016967792,0.037503086,-0.007782091,-0.00990985,-0.043727405,0.035274908,0.034444433,-0.03786019,-0.03843329,-0.023374945,0.018905614,0.0240724,0.011829394,0.058820426,0.019827774,-0.02852033,0.0021560749,-0.010029536,0.0065080696,-0.00703216,0.011536113,-0.009756467,0.045216303,0.0046337578,0.024680562,0.024460493,-0.013769168,-0.013534226,0.045632355,0.013345895,-0.034439933,-0.011616599,0.01653154,0.027651947,0.027612418,0.02046154,-0.003913826,0.001431219,0.009929224,-0.037857577,-0.017978944,-0.024976991,0.0024908737,-0.053623077,-0.009075152,0.025241649,0.007725486,-0.0073826546,-0.031486373,0.011033964,0.02193829,-0.0006459727,-0.048500933,-0.04714258,-0.0030968103,-0.038056392,-0.046909902,-0.053257506,-0.0061345617,0.018035194
sp|P0CB20|CONII_CONST,0.020315306,0.030683668,0.019377591,-0.056942213,-0.0038230768,-0.021523857,-0.03691886,0.01601963,0.008422644,0.00049321126,-0.04211324,-0.012099809,-0.0029548507,0.026460992,0.07945958,0.017723354,-0.04255791,0.056758597,-0.029739017,-0.059280604,0.050181706,0.01814973,-0.025858715,-0.06915029,-0.018033221,-0.05562104,0.04502015,0.012316792,0.050694745,-0.02772278,-0.052197225,0.01934496,-0.08618762,-0.015394764,0.005288042,-0.049274486,-0.0013628745,-0.026465498,0.02667266,-0.03323753,0.014785331,-0.029239513,-0.024120178,0.018481169,0.030706214,-0.036357988,0.010206156,-0.018290052,0.039893005,0.0014580219,-0.027301775,-0.011152807,-0.011035262,-0.026037758,0.030696541,0.0015894256,0.024360498,-0.13507143,-0.012621084,-0.012425341,0.037607204,-0.043016724,-0.005795959,-0.0026088748,-0.037865713,0.042147923,0.015565363,-0.012346798,-0.02290589,0.02386382,-0.034356605,-0.014363296,-0.044008646,-0.020611877,-0.006070493,0.029622173,-0.0050241062,0.001915515,0.024892364,-0.046120625,-0.021761915,-0.020372506,0.0006405519,0.008926845,0.013811761,0.015239968,-0.009460889,0.15389623,0.035985734,-0.03530745,-0.0021642363,-0.0018069737,-0.035966605,-0.054444756,0.03219313,0.0380614,0.07314269,-0.014920429,0.041504268,0.029399527,0.03431708,-0.03368174,0.04190271,-0.0037302016,-0.00012666226,-0.0016445422,0.023857838,-0.03751323,-0.034144446,0.022392036,0.099025555,-0.005629333,0.0261325,0.016351838,-0.029251974,-0.033011604,-0.009509494,0.0013715124,0.043911867,-0.10147349,0.00090842653,0.015313105,-0.031772498,0.029579291,0.0025942775,0.023011994,0.05775683,0.009322721,0.0006439798,-0.021098183,-0.082779035,0.0064497576,0.008823639,0.024708541,-0.040083926,-0.004926406,-0.07283069,-0.024119467,0.052335028,-0.03544136,0.011414353,-0.011586657,0.061340835,-0.23600803,-0.032637462,0.39833406,-0.041860174,0.04358957,-0.016667418,0.004200815,0.009570436,0.0008297508,-0.0027767662,-0.026896903,-0.029539533,-0.01906072,0.009503886,-0.0011603923,-0.04129894,0.031499855,-0.042611018,0.036120806,0.034152374,0.04867539,0.005461367,0.02977144,0.004170059,-0.016010895,-0.012252663,-0.0066549787,0.042186566,-0.006103768,0.00021138332,0.020882698,0.0071873576,0.0088723535,0.054166026,-0.07942016,-0.016259348,-0.009803427,0.025429672,-0.098615184,-0.05315855,0.053398505,-0.007924091,0.014943978,-0.0035637375,-0.007207157,-0.065253064,-0.048790634,0.017643983,0.015170255,0.029876476,0.006564578,-0.0071619265,0.0094977245,0.08131751,0.01033469,-0.00033959883,0.008758564,0.002900636,-0.012512904,-0.048633683,-0.0023170887,0.03202656,-0.0048545,-0.043503597,0.05795987,0.008472011,0.014038914,-0.04711505,-0.008549101,0.009095413,-0.07438828,-0.010816366,-0.007313907,-0.0075672404,0.017054372,0.017248865,-0.022535231,0.23256709,0.02194276,0.02547466,-0.020583645,-0.019420896,0.05849392,-0.016783984,0.0350475,-0.008090037,0.021136666,0.045698237,-0.04573433,-0.008090254,-0.053187553,-0.021923574,0.010184305,-0.2902144,-0.027194956,0.02740778,0.005192094,0.018266851,-0.014183965,-0.049363878,0.020973573,0.058535174,-0.02178823,0.013139608,0.0025996955,0.0726414,0.024440527,0.034561247,0.043903336,0.008233049,0.01957563,-0.040242415,0.014014902,0.008900572,0.019641483,-0.0162832,0.020268962,0.024285557,-0.07487048,-0.013380177,-0.002741863,-0.042922642,0.010037615,-0.014154537,-0.065292686,-0.047239333,-0.052239917,0.049445655,0.014328155,-0.01541138,0.018083155,-0.016945777,0.13151355,0.027807122,0.03955774,0.017260851,0.055791922,-0.010603632,0.0005203767,0.029516986,-0.013055743,-0.00561696,0.04024521,-0.028143194,-0.01660223,-0.044027057,0.024994675,0.01498094,0.13773677,-0.054806605,0.07677484,-0.04447943,-0.034813795,0.06274941,-0.011552705,-0.03326796,-0.03475393,-0.00240871,0.02298806,-0.0012713374,-0.03064156,0.043830886,0.01684588,-0.06280133,0.004253862,-0.059723146,0.043286733,0.049078222,-0.010854356,-0.022264298,-0.012296005,-0.06253913,0.010940674,0.041316807,-0.047230203,-0.04788344,-0.04689431,0.050310105,-0.0016019879,0.022854725,-0.01766866,-0.0028303233,-0.040458415,-0.004218793,-0.01662502,0.2541826,0.037853427,-0.04508383,0.050081316,0.0039456133,-0.022767017,-0.04470011,-0.011112488,0.024882156,-0.014745252,-0.04174707,-0.06707097,-0.014587052,-0.0016725145,0.0180627,-0.024733607,-0.06257681,-0.025277788,-0.031704832,-0.033378832,0.028351871,0.023558054,-0.06337314,-0.072309524,0.0058749565,0.0017408285,0.012861051,0.04902002,0.024823131,-0.022619512,-0.0014118855,0.038632546,0.0035904073,-0.011295269,-0.0065004993,0.015253628,-0.009727653,-0.010462676,-0.0035504822,0.004617569,-0.041736815,-0.013100514,-0.027854886,-0.024026839,-0.029360883,-0.0069377264,-0.01676279,0.02045202,-0.037746705,0.03389219,0.0009360971,-0.0060472544,0.005654665,0.0248002,-0.002729618,0.027958462,-0.02569376,0.012070511,0.0070151654,0.053134207,0.054193694,-0.049608238,0.047640424,-0.02398168,-0.0057333093,-0.076564156,0.049980685,-0.008390877,0.0635058,0.013541104,0.03134027,0.01767807,-0.00494281,-0.007541106,-0.0045427894,0.041673478,-0.0155587215,-0.09141948,-0.008735656,-0.0678368,0.030171316,0.013977707,-0.0041280733,0.026131976,-0.004827952,-0.04317658,-0.005513283,0.011042669,0.0076725995,-0.0059175002,-0.03397843,3.1340123e-06,-0.006122356,-0.0019303794,0.030749988,0.013375346,-0.0272171,0.0015460672,0.027003326,-0.015433905,0.03795241,0.017440455,-0.10604869,0.023699386,0.07830941,0.09512887,-0.041445263,-0.16895834,-0.06732725,-0.0469861,-0.021522844,-0.034385394,-0.013717522,-0.023184292,-0.013039014,0.013346355,-0.020033935,0.037017077,-0.033758976,0.0017477393,0.07436852,-0.032789886,0.0169101,0.032269187,-0.0606596,-0.012681841,0.005237215,-0.06941517,0.09545029,0.035747256,-0.049933493,0.028019385,0.00457729,0.015794005,-0.0026665062,-0.03172959,0.040853582,-0.002147223,0.016076367,-0.023410052,0.025949253,0.030499697,0.03280895,-0.019706652,-0.022462718,-0.028118433,0.04877292,0.03299229,-0.041956704,-0.001192112,0.0062790774,-0.019334774,0.018524384,0.014607355,-0.03638039,-0.039371014,0.028283019,-0.025489468,-0.030358551,-0.027756352,0.04322167,-0.026519496,-0.03475248,-0.004146278,-0.003671193,-0.010439739,0.100655966,0.027134905,0.0027533027,-0.03214444,-0.01666474,-0.05684086,-0.015232697,-0.02511688,-0.04579,-0.004300045,-0.020467894,0.02052015,-0.012662509,-0.036039867,-0.012394142,-0.020732304,0.0104106255,0.07293911,0.009030174,-0.00069922605,-0.04494753,0.002195124,0.006380264,0.01313311,0.031024685,-0.038678974,0.049696732,-0.018242598,-0.078070275,-0.00020897675,-0.0008821227,0.04601182,-0.021333331,0.025229862,-0.04758849,0.06782975,-0.035908017,-0.025820043,0.013392106,-0.30583394,-0.00031244094,-0.050760735,-0.019088792,0.066413656,0.043347348,0.0046438663,-0.024419626,-0.010425347,-0.042797275,0.08191481,-0.023889208,0.016282778,-0.037760254,0.014872444,-0.008028236,0.011676885,-0.007255714,0.04774342,0.038522124,-0.0125095425,-0.0052989037,0.05886781,0.011297546,0.012503535,0.004593302,0.017425347,0.0090573495,-0.022654502,0.027391681,0.031415906,-0.013988034,0.0332872,0.07192984,0.008739023,-0.017710535,-0.0029377115,0.0170155,0.010760723,-0.032338515,0.021729484,-0.008041895,0.046941344,-0.016657744,-0.0051791407,-0.13445668,-0.041675407,-0.008072686,-0.03328269,0.04563712,-0.016397549,0.036885675,-0.080139875,0.021418978,-0.030643402,-0.008946979,0.005839201,-0.038707323,0.007582518,-0.02945406,0.017283523,-0.05074331,-0.021503124,0.012892467,-0.0042174472,-0.032233294,-0.013292374,-0.03251399,0.007858346,-0.037330132,-0.035499778,0.0038077077,-0.054527648,0.04476404,-0.011949386,-0.027081614,-0.04390101,0.011449275,0.010564538,-0.048201773,-0.020302342,0.0342409,-0.009144476,0.020573022,0.014792776,-0.026085189,-0.0102812825,0.015884569,-0.031053752,-0.07257163,-0.010414436,-0.008133337,0.033792164,0.024771804,-0.016415592,0.0136638,0.025289815,-0.01516126,-0.033175915,0.09307537,0.035800345,-0.03060728,0.026470568,0.016483184,-0.034119576,-0.031808008,-0.02770222,0.03145012,0.014979614,0.022868048,0.06738287,0.0043739355,0.035224903,0.020876475,-0.0042133476,0.020446874,-0.044466153,0.005482146,0.016974969,-0.047734186,0.0059024617,-0.060135122,-0.0141929,-0.010998866,0.0007742109,0.026289273,-0.0071337684,-0.025761701,-0.021995807,-0.014442127,-0.034567222,0.034606744,-0.06239541,-0.015899545,0.018906761,0.013428171,-0.031004276,0.009996348,0.0005942804,0.014285809,-0.06253459,0.00089748803,-0.0017138724,0.014745114,-0.0024851179,0.012338461,-0.012079584,-0.044143304,-0.004783861,-0.06862386,0.024234237,0.10719531,-0.028063023,0.08054539,-0.010636376,0.007884325,-0.020790383,0.014492672,0.017124146,0.011359341,-0.030462494,0.02756104,0.0071500107,-0.024154937,0.03362178,-0.060694195,-0.0025010926,0.017462337,-0.007110203,-0.014074509,-0.009772202,-0.034508437,-0.0060509765,-0.020004278,0.0488575,-0.0039002437,0.033085804,-0.08144895,-0.02042686,0.053283688,-0.033429,-0.0012250642,-0.00839686,-0.15003073,-0.0015325485,-0.06539243,0.07166168,0.0041123563,-0.015510753,0.016410507,0.025357837,0.063567385,0.052308667,-0.02415182,0.019519404,-0.060672212,-0.0112486,-0.027241182,0.055981074,0.015955027,-0.04617761,-0.03438403,-0.047351506,-0.015874553,-0.010980742,0.081573114,0.06418447,0.03630143,0.016192704,0.040181056,-0.011353492,0.0042629377,-0.01770885,0.030373715,-0.00020029939,-0.0012870913,0.0323361,0.02973173,-0.016234213,-0.027860885,-0.07001584,-0.040641233,-0.029372979,-0.03458256,0.00093672774,-0.051676206,0.005229088,0.07085954,0.023400288,0.041463755,0.01139173,0.06227197,-0.05167211,-0.018848592,0.0060258084,-0.06256041,5.3040795,0.041931365,0.00014995266,-0.014128709,-0.046311885,-0.052306276,-0.031113716,0.03711718,0.09763661,-0.007466088,0.05173494,-0.004721302,0.048972666,0.0007449949,0.0065439306,0.29304895,-0.043183163,-0.014267185,0.002052983,-0.020383192,0.35973516,0.025447182,-0.024730358,0.0068705855,0.04673213,0.0052855224,-0.036467146,-0.033767574,-0.016715026,0.050214954,0.033582084,-0.026375296,-0.028860928,-0.0587986,-0.0004661379,0.032101143,-0.048576165,0.017644092,0.010002453,-0.04439697,-0.012422288,-0.025034493,0.05482851,0.00090271997,0.027438553,0.01306125,-0.21946272,0.018188845,-0.052166834,-0.015730599,0.010167851,0.050804842,-0.013493853,-0.00769391,0.25050756,-1.9537799,-0.013202874,-0.0113667045,-0.006734574,0.006897887,0.021134611,-0.005677602,-0.0030813417,-0.00550268,0.01212043,0.014907211,0.018802341,-0.017860265,0.11486308,-0.022222394,0.039594755,-0.0699723,-0.010652418,0.014137751,-0.034535248,0.06985662,0.02556262,-0.01187884,0.0028108177,0.060875714,0.036365665,0.025598753,0.017259415,-0.037591517,-0.00085058785,0.0010894067,0.0644507,-0.062796235,0.027471475,0.029827533,0.014754295,-0.0019577923,0.056411125,0.0054561775,-0.009788167,0.045244277,-0.053906843,0.028688444,-0.0439047,0.01263057,0.16469407,-0.04463967,-0.037765875,0.033170912,-0.023534771,0.006233099,0.016866852,0.05517572,0.016811237,-0.054078225,0.059450723,-0.024394544,-0.041600417,0.012104917,0.05872016,0.017983098,-0.06527347,0.0431997,0.036009386,-0.032968763,0.038589794,0.010964885,-0.0012692508,0.019026997,0.016303465,0.028315164,0.041056823,-0.03493181,-0.06830339,-0.005535161,0.040919494,-0.025330948,-0.042326935,-0.0009467348,-0.05799576,0.059152357,-0.052342087,-0.056648307,-0.014286453,-0.008836621,0.042170905,-0.01434696,-0.012251051,0.00015447516,0.05212157,0.013739894,0.01874101,-0.024717912,-0.02364106,0.05094398,-0.011200432,0.02488108,0.054768465,-0.04287202,-0.023839967,0.058424976,-0.043591354,0.0489344,0.0004730506,-0.034992162,-0.013183581,-0.012085085,-0.0076799784,0.010380792,0.018781697,-0.041188303,-0.009304763,0.0065432996,0.00049237994,-0.012088169,0.0029722604,-0.045029536,-0.03593856,-0.12505014,-0.0060252557,0.068392776,-0.002806478,0.012617543,-0.048706032,0.025805006,0.0048423437,-0.085051276,-0.0036240448,-0.042308394,0.03277176,-0.03259209,-0.038835015,-0.025839956,0.0056692446,-0.02791028,-0.03134333,-0.00021906794,-0.031427022,0.028030476,-0.044978686,-0.05037815,0.04814723,0.014884066,-0.078418545,-0.041973013,0.020240689,0.010484377,-0.054884735,-0.024683708,0.036168158,-0.019730588,0.016043028,0.009591749,0.0505973,0.016139029,0.004711843,-0.032413956,0.0070592607,0.0010466886,-0.031067016,0.033963494,0.0035157811,0.060637586,-0.020510592,0.013126448,0.011773423,0.02390795,-0.034064118,0.022479508,0.0042683394,-0.07949442,-0.034730285,-0.018331101,0.030539846,0.015655214,0.038531203,0.0062560043,-0.050486874,0.008984643,-0.10347647,-0.0414651,-0.02150313,0.021009592,-0.03845066,-0.03664936,0.022358349,0.025063908,-0.0012790347,0.020264668,0.010252069,0.056556687,0.04092709,-0.094268315,-0.041592397,0.020637156,-0.017871708,-0.024990218,0.014722655,0.0011543131,0.05900377
sp|P28879|CAS2_CONST,0.08717404,-0.024302537,0.00047079715,-0.04608608,0.053321846,-0.014657233,-0.039446477,0.0059816157,0.0014008485,-0.020377977,-0.007546766,-0.044437923,-0.011201778,0.008877578,0.07653266,-0.061673105,-0.0627857,0.04368272,-0.011864041,-0.026543373,0.040452026,-0.018536646,-0.02919893,-0.027346537,-0.07225616,-0.06878137,0.07866424,0.044129148,-0.01885369,-0.040701628,-0.026136452,0.052952178,-0.093192026,-0.029904127,-0.01655531,-0.02129538,0.011908563,0.026093196,0.012502257,-0.09885335,0.012346007,-0.042957604,-0.00991276,-0.0046797935,0.022277236,0.00758605,0.02195963,-0.026809415,0.028587593,-0.08142407,-0.057133835,-0.069253795,-0.0012370594,0.008019974,0.0043401737,-0.0048005753,0.007862332,-0.100582175,-0.034019627,-0.04095096,-0.0077891923,-0.07081587,-0.018964097,0.015528798,-0.013452307,0.015535425,0.06511873,-0.058625177,0.0059850262,-0.012476639,0.013230351,0.024263272,-0.037846457,-0.038450267,0.0043449425,0.054340195,-0.03918671,-6.79501e-05,0.02911126,0.021789104,-0.043972407,0.019974722,0.02405821,-0.032867324,-0.00012936826,0.023818653,-0.006757443,0.15052693,0.09567374,-0.039017227,-0.014222095,0.030479973,-0.063154116,-0.04162872,-0.018821843,0.006553018,0.07610938,-0.0026989535,0.0561122,-0.0040575033,0.000488866,-0.006840487,-0.0023133901,0.0061045154,0.016251285,-0.069347724,-0.01756216,-0.019928133,0.03488149,0.0120107755,-0.009010076,-0.0059951223,0.0054310667,0.031455517,-0.0054907566,-0.055208527,0.011410605,0.046992965,-0.039105628,-0.17952442,0.017265612,0.044894278,-0.014307992,0.03608586,0.001311502,-0.028407406,0.063464075,-0.03253564,-0.0093387,-0.025444262,-0.056511253,0.005820572,0.009676977,0.03720348,-0.0015902643,0.017147759,-0.04218006,-0.040912848,0.026929555,-0.0048861736,-0.037822925,-0.0031500498,0.012555638,-0.45105058,-0.01963052,0.25583586,-0.042851176,0.050738666,0.035487883,0.02625725,0.0013203812,0.024157735,0.0011907675,0.020570021,-0.06320701,-0.00858447,-0.00082554127,-0.02021832,-0.07836201,0.026697008,-0.04663926,0.025212724,0.01043853,0.028216658,0.025109654,-0.024039716,-0.0112742055,-0.015766263,0.01735299,-0.00040595516,-0.00011320533,-0.045200482,-0.05060961,0.0023537972,-0.005416345,0.020493995,-0.0019541045,-0.055123612,0.044725962,0.016504548,0.008337354,-0.070526235,0.022169573,0.018577117,0.000676222,-0.012544631,-0.044114232,-0.004189379,-0.06726067,0.03643949,0.037886273,0.06301433,-0.020884763,-0.03023843,0.008786504,0.020603007,-0.008241578,-0.0046668937,0.03577932,0.015436129,-0.025374163,-0.018429108,-0.0247557,-0.014490929,0.015388453,0.0040661497,-0.049997438,0.055749815,-0.027776448,0.022373218,-0.047667757,-0.043355636,-0.013656298,-0.038163602,-0.046434414,0.018181102,0.015471033,0.030629458,0.051146477,0.023923649,0.059268855,-0.0011145464,0.03847262,-0.07046283,-0.05621872,0.07820213,-0.019335827,-0.0069294185,0.016094318,0.04234432,0.008452172,0.022495678,0.0060521676,-0.04201273,-0.024851138,0.037967224,-0.1843286,-0.010283918,-0.0073814136,0.028415464,0.010722187,0.009696665,-0.029184941,0.03123339,0.044632737,-0.0017205913,-0.011098556,0.008737072,0.058724366,0.0062153507,0.014161258,-0.0044072024,-0.02172243,0.052665055,-0.06690261,0.02434947,0.00051114726,0.027547272,0.032095578,0.03809165,0.020718342,-0.032936767,0.010616276,-0.0042747827,-0.02825416,-0.0049296254,-0.017346688,-0.016182408,0.024067037,-0.06436804,0.024632787,0.044376716,-0.038241353,0.01696285,0.023945576,0.01041549,-0.06275706,0.04120265,0.0023841334,0.1005697,-0.021190187,0.027349237,0.0378655,0.014272909,-0.03555823,0.09681385,-0.020864425,-0.02026235,-0.007827985,0.012480232,0.022757398,0.06539066,-0.080753565,0.00080777105,-0.091721855,-0.056763314,-0.022480588,-0.007814293,-0.05882499,-0.010862251,0.017536355,0.012436427,0.009797967,-0.02275481,0.07921669,0.028437885,-0.05015384,0.03312217,-0.05017562,0.016551811,0.070528686,-0.0046073897,0.020982027,-0.017065898,-0.02080154,-0.021990007,0.026244676,-0.052214276,0.012293601,-0.0457991,0.053030904,0.015313482,0.024038065,0.017663766,-0.0014442876,-0.03358633,-0.019077828,-0.028951026,0.20859754,0.056463826,-0.055439536,0.08121264,-0.07073166,-0.044685375,-0.015608232,0.0022957888,0.013779444,-0.016837524,-0.048832286,-0.051394362,-0.021565849,0.002490399,-0.032053344,0.037238527,0.0043597366,-0.0071068085,-0.037125885,-0.00024613013,0.038422707,0.022458917,-0.07369607,-0.04991449,0.05727421,0.021456786,-0.026277268,-0.016038075,-0.021561123,0.025478335,-0.0050149374,0.017540406,0.0067992606,-0.012978178,-0.041597024,0.027800234,-0.033023346,0.008790251,0.017005444,0.04931413,0.007134221,0.017679034,-0.04762055,-0.06667678,-0.0054638507,0.0019197124,-0.05129228,-0.006830827,-0.030347934,0.0595378,-0.022427067,-0.014683542,0.03776704,-0.047651213,-0.018252322,-0.0702666,-0.003706574,0.033639804,-0.015669988,0.06547946,0.044793613,-0.018989325,0.051504757,0.007097612,0.0049852487,-0.0019687922,0.033721387,0.005505106,-0.0003123533,0.006099337,0.011575062,0.00086719997,0.024184505,-0.0023846799,0.0052525112,0.0809058,-0.009480329,-0.011209625,-0.011491165,-0.026016317,0.012197632,-0.006818609,-0.019453129,0.02508231,0.026754841,-0.016397472,0.058323823,0.02680238,-0.010223292,-0.024875544,-0.016231043,-0.00843096,-0.023892079,-0.03236685,-0.014448493,-0.047627438,-0.010911033,-0.07152512,0.01214117,0.0661505,0.016649796,-0.029753212,-0.06616467,0.030688692,0.025620883,0.012783859,-0.026724724,-0.13467404,-0.056207,-0.016258594,-0.020933319,0.004081618,-0.0051410804,0.022773912,-0.00640806,-0.0040220562,-0.030401831,-0.013078321,-0.036540933,0.04279026,0.008589262,-0.0060462803,-0.02339771,0.019729683,-0.11689225,0.0064905332,-0.00016643066,-0.011015737,0.06910653,0.045750685,0.0035375317,-0.04008143,0.0035191046,-0.013888649,0.031764824,0.025414892,0.018973557,0.057358794,-0.044012684,-0.046417795,0.00032171205,0.013861086,0.04625066,-0.009737274,0.009082008,0.010358868,0.06490997,0.023956846,0.0591191,-0.066012986,-0.007919265,-0.048465837,-0.006426358,-0.021354366,-0.044381462,-0.068667464,-0.0018809706,-0.0065987385,-0.05094615,-0.016223399,0.056876723,-0.057896666,0.041163716,-0.019447248,-0.004995562,-0.010514056,0.061203636,-0.0117295245,0.06503618,0.008382735,-0.0085818255,0.059738345,-0.026197644,0.024316907,-0.006370474,-0.021347977,-0.030387124,-0.021939475,0.0050088107,-0.0058206813,-0.038523264,0.009465761,-0.01199418,0.00679051,-0.046676017,-0.013363627,-0.013013131,0.0069868113,0.019323261,0.05383422,0.05143623,-0.026671125,0.01979505,0.009602999,-0.066247925,-0.010959786,0.036642667,0.06373842,0.034567475,-0.018099593,-0.009494553,0.08468544,0.018361773,-0.022730917,0.004557988,-0.21236129,0.044960383,-0.05109299,0.0025294966,0.14414357,0.042150542,-0.0022173717,-0.03272025,0.01706031,-0.01781489,0.062608056,0.009736221,0.07595861,-0.077364735,-0.03724137,-0.0152276885,-0.028454153,0.004508103,0.081022836,0.043958146,0.0037063565,-0.02730944,0.0441359,0.041447334,-0.017753273,0.033596992,-0.033039786,-0.06891759,0.0017900442,0.031539693,-0.000766738,-0.009667405,-0.010421716,0.029410163,0.016704198,0.011035899,-0.08506383,-0.016596192,0.038274843,-0.07155519,0.0066172546,0.022283042,0.0052832896,-0.044320386,-0.032932643,-0.23292577,0.02702829,-0.023778435,-0.016417887,0.043955334,0.021246787,0.04536301,-0.08134896,0.002388119,-0.07262085,-0.043790616,0.028961858,0.001347148,0.012715984,-0.02322959,0.0025682254,-0.017984215,0.016457336,0.0020349429,-0.043195013,-0.051133536,0.028044011,0.036770377,-0.04105426,-0.006199417,-0.021549292,-0.0021841016,-0.040985167,0.012293334,-0.035548937,-0.026207125,-0.011320542,-0.00032476475,0.0039112368,-0.021741543,-0.027627226,0.02253004,-0.030508788,0.013234902,0.003897617,-0.023450904,0.0147782955,0.028007347,-0.011761626,-0.046628285,-0.0130859185,0.02151024,0.010064973,0.03984455,0.020782739,0.018254388,-0.005293336,-0.0132665085,-0.049774922,0.06629145,0.021917239,0.03199042,0.07693688,-0.003730252,-0.011377964,-0.014967885,-0.015757445,0.061552268,-0.0514198,0.018701209,-0.01496198,-0.026121503,-0.0037112378,-0.0680969,-0.022929369,0.033481374,-0.033741828,0.027264666,0.028721863,-0.016846763,-0.02959601,-0.020129304,-0.05822031,-0.0034852044,0.0063049654,0.030287562,-0.007406982,0.0046908096,-0.010587078,-0.0069851265,-0.015619395,-0.006292139,-0.009203365,0.053825747,0.037481006,-0.011829758,0.033001196,0.013339786,-0.0027908108,-0.022311915,-0.03937796,-0.033603497,0.0028307973,0.013821534,-0.0012059945,0.04337848,-0.005540542,-0.0009383092,0.022019628,0.0118885655,0.014385219,0.044620186,0.0115389135,0.07996562,0.027617004,-0.02271226,-0.0044303755,0.00542145,-0.0007695459,0.021737557,-0.018910114,0.053645972,0.07187751,0.04893261,-0.024451636,-0.07099627,-0.05791882,0.073834576,-0.04139847,-0.030986132,0.037391495,-0.013689821,-0.033033423,-0.018631317,-0.0047137495,0.037823897,0.02560467,-0.07565062,-0.073402375,0.061331853,-0.06634829,0.019474627,-0.0026831278,-0.25462425,0.044874795,-0.03194899,0.10101414,-0.02174089,-0.016926149,0.040392198,0.018817257,0.07113743,0.050923765,0.0016364536,0.02314377,-0.045692407,0.00014522269,-0.025411116,-0.01757577,-0.009996227,-0.06241046,-0.027040958,-0.043163482,0.012449664,0.01915519,0.09760428,0.02792418,0.09503818,0.044007115,0.08111198,-0.006527678,-0.019121911,0.03173553,0.016914396,-0.023005063,-0.025679316,-0.0011624743,-0.0069743106,0.03929009,0.002455581,-0.06274565,-0.04731663,0.034822498,-0.032941673,-0.016233042,-0.0025374615,0.007585204,0.050931774,-0.031887643,0.017387908,0.037390463,0.040531132,0.009322712,0.014594325,0.030732187,-0.07392857,4.2258744,0.0049311584,-0.005444112,0.05853923,-0.0421059,-0.058523268,-0.02851668,0.023410967,0.016686535,-0.04256329,0.06324724,-0.00053344475,0.013862149,0.008094309,-0.0077052577,0.19882563,-0.066884205,-0.014776627,0.028106725,-0.019156823,0.4314618,0.06851978,0.010152099,0.037123043,-0.008240922,-0.024662344,0.0004002621,-0.028620314,0.021166202,0.018223966,0.014437337,-0.0389876,-0.01901519,-0.10399703,0.034599535,0.031016385,-0.077553876,0.00034738192,0.018722067,-0.053797305,0.0136202285,0.009555297,0.01013889,-0.037502624,0.017494999,-0.02436788,-0.16646647,0.011652015,0.009337095,0.038643777,0.019397873,0.04568006,-0.035515133,0.020236047,0.12556694,-0.92365855,-0.008481999,-0.0026243827,-0.009779255,0.007406174,0.034174763,0.0022979814,-0.0039438466,0.051957533,0.011903471,0.040410053,-0.005585484,-0.03886803,0.114295796,-0.037628874,-0.014242077,0.011924076,-0.015960176,0.006384326,0.008692231,0.049057793,0.006287821,-0.00068719406,0.037965115,0.02143363,-0.018306727,0.002336066,0.0025042747,-0.020976342,5.5271225e-06,0.033189755,0.0059483517,-0.024747826,0.014241064,0.046389986,0.03583779,0.0002751314,0.02010588,-0.0036441192,0.019406108,0.019861067,0.027486453,0.054163493,-0.014476377,0.0022352184,0.07082917,-0.056799535,-0.05071472,-0.016694931,-0.009435322,-0.02025785,-0.031871494,0.04334549,0.048319213,0.0010274407,0.009039119,-0.06069626,-0.05679611,-0.01820937,0.05156147,0.04780106,-0.05047311,-0.007490712,0.08278924,-0.05709339,0.038044777,-0.0015145584,-0.021583052,-0.0074222605,0.022219794,-0.023752164,0.017700037,-0.004601961,-0.041741107,0.08155117,0.043225124,-0.026959285,0.014487204,-0.012118891,-0.0509431,0.062097125,-0.027749835,0.0055302326,0.006757989,-0.021901473,0.0057221046,-0.021326656,-0.025972804,-0.02905922,0.03568306,0.03328906,0.05947143,-0.023530621,-0.040174473,0.055192433,-0.0077355634,0.034507126,-0.0080120675,0.012044251,-0.028416708,0.051912643,-0.012233582,0.015178806,-0.0600489,-0.07875931,-0.02030019,-0.008244921,0.0059969216,0.031685263,0.020271292,0.008388336,0.055185467,-0.055740543,-0.014090211,0.04352317,-0.040205926,-0.1276461,-0.057412006,-0.077511996,0.037706178,0.020923797,0.0015526974,-0.01514662,-0.029164823,0.004319577,-0.038283505,-0.07903965,-0.004420622,-0.03082574,0.03315707,-0.011723801,-0.029245235,-0.009891373,-0.036213502,-0.050555248,-0.01456223,-0.013487384,-0.034491606,0.020593453,-0.06254608,-0.015110561,0.038382765,-0.037473075,-0.007796298,-0.010308308,0.026890416,0.029941317,-0.005524536,-0.0408396,-0.011244026,0.036480375,0.019058038,-0.020459812,0.06373674,0.053339455,-0.013109529,0.003665758,-0.013228851,0.014686589,-0.022617169,0.04313225,-0.009272708,-0.00015008611,-0.0035829775,0.011020958,0.021167886,-0.012054411,-0.012751296,0.053857848,-0.003085909,-0.05327103,-0.0058765407,-0.0007126392,0.027340801,0.027731476,0.012494412,0.0203722,0.0053635375,0.009089388,-0.052603077,-0.011496122,-0.03314584,0.015425748,-0.06976165,-0.03707158,0.042095356,-0.030870553,-0.054854535,-0.011617603,0.01704741,0.033259932,0.0019997933,-0.066687405,-0.06336661,-0.0030050615,-0.04184614,-0.056227773,-0.057201855,-0.0006225858,0.0036986608
sp|P28880|O16A_CONST,0.05645134,0.0058156927,-0.035897713,-0.04471423,0.05527499,0.00068248936,-0.023424543,0.019731602,-0.02744609,-0.034917735,-0.038138878,-0.037099477,-0.0441104,0.023943141,0.08494161,-0.040849008,-0.032807495,0.019738639,0.015224408,-0.05075933,0.02901981,-0.013444762,0.019137694,-0.026929544,-0.08842437,-0.044231523,0.058365475,0.035391964,-0.011314877,0.0073515642,-0.041184567,0.015987055,-0.050701782,-0.050499123,-0.00094448874,-0.008041452,0.008082118,-0.0071459874,-0.009515451,-0.050861422,0.03486729,0.021834059,0.0064858706,-0.029492524,0.050403714,-0.0025315408,0.008461038,0.0073083364,0.017270638,-0.0924244,-0.056280073,-0.036691166,-0.004461526,0.051784392,0.003289886,-0.013276038,-0.013433512,-0.036146153,-0.06445043,-0.03883959,0.0026333607,-0.029092688,-0.00057266856,0.04031093,-0.022466956,0.03523659,0.05857409,-0.04084169,-0.017126426,-0.018014174,-0.0337957,0.010808022,-0.040251836,-0.039459225,0.012555979,0.023410778,-0.033339553,0.020797787,0.007099825,2.9330318e-05,-0.03846099,0.027020691,0.018333027,-0.035627156,-0.029685594,0.0102967555,-0.03336331,-0.037638374,0.06863754,-0.011251758,-0.005495406,-0.0033496856,-0.04847664,-0.04413535,-0.04096152,0.024441987,0.07808648,-0.01742115,0.025933988,0.005048146,0.03245987,-0.022549724,0.01541494,0.017606355,-0.024391752,-0.013112951,0.029804274,-0.010169692,0.026128357,0.0056694164,0.017816197,-0.012298699,0.01228579,0.012110309,0.025763983,-0.03253994,0.009580611,0.0033573564,-0.06423905,-0.15712519,-0.00873731,-0.0020144521,-0.020983402,0.041876916,0.018625507,-0.042180076,0.0676714,-0.027694296,-0.022278158,0.0004917508,-0.027310275,-0.008911634,-0.0027052665,-0.010137161,0.0077663166,0.04158913,-0.03999924,-0.017614895,0.015737217,-0.0028357154,-0.041842975,-0.01188955,0.0046847747,-0.3405252,-0.03258019,0.16467379,-0.0179454,0.04073561,0.01593003,0.02231894,-0.008902674,0.05817507,-0.05367138,0.02814572,-0.03484876,0.014221731,0.010628934,-0.022073591,-0.06202391,0.021819228,-0.017867051,-0.0012219027,-0.009327422,0.031311262,0.02750775,-0.008526074,-0.015640793,0.020551007,0.00605157,0.0057524345,0.059769206,-0.046464365,-0.043023337,0.028104464,0.016637506,0.011804382,0.00990796,-0.026602387,0.042385444,0.037944317,-0.024621768,-0.039276823,-0.022787534,0.009793221,0.017737104,-0.023785144,-0.053903762,-0.0070448653,-0.06984856,0.03333336,0.020755207,0.03283435,-0.020435572,-0.009271838,0.0025446431,0.022480765,-0.00627061,-0.016259851,0.049590647,0.015540538,-0.010790918,0.005592924,-0.016017968,-0.009765575,0.015969926,-0.017852182,-0.016989844,0.0035631447,-0.04324855,0.01816402,-0.010381193,-0.024215179,-0.027614461,-0.03826065,-0.05870207,0.04047489,0.02415959,0.013748001,0.033311952,0.024053652,-0.018988496,-0.03149456,0.022399524,-0.068898536,-0.04681513,0.058393285,-0.0061502196,0.012926619,-0.01254064,0.06050698,-0.017704587,0.032757025,-9.674398e-05,-0.0020901219,-0.018348603,0.027479498,-0.12213917,0.03309717,0.0034952185,0.0233743,0.002054135,-0.0054764682,-0.0402365,0.053767048,0.05428936,0.019672642,0.003495903,0.02232895,0.029925829,0.00038811946,0.020397115,-0.009051809,-0.017198205,0.04844717,-0.025933784,0.013891001,-0.017080892,0.028882906,0.008239873,0.050925497,0.01368242,-0.040644165,-0.011399313,0.014467696,-0.05671028,-0.0012260902,-0.060721964,-0.0019553436,0.04170187,-0.023326706,0.01457547,0.038440134,-0.033214927,-0.0113396505,0.016642233,0.050942287,-0.049288526,-0.004467336,-0.0014426153,0.10537051,-0.04820977,0.041033547,-0.0010339025,0.00020716964,0.0063940184,0.041618455,-0.009999538,0.006511667,-0.008072813,0.0032202883,0.017320221,0.15133022,-0.05949831,-0.018860698,-0.15085602,-0.026482537,0.012925056,0.03040712,-0.0534147,-0.000989156,-0.0017191301,0.04730252,0.010120747,-0.009721755,0.08843685,0.0030425522,-0.013975749,0.05017559,-0.038004443,0.0056737596,0.043802455,-0.032498777,0.002922834,-0.04086877,-0.014174667,-0.010636831,0.02893087,-0.04103092,0.013763956,-0.03802765,0.032867167,-0.014643695,-0.028895061,0.006249718,-0.009407803,-0.022159435,-0.018869467,-0.018036013,0.09916731,0.033397403,-0.06100929,0.06959341,0.0017374356,-0.014510826,-0.046561994,0.009091368,-0.020949382,-0.025156524,-0.0072799213,-0.040050805,-0.008460187,-0.021875665,-0.008059034,0.026363727,0.034939993,0.016207991,-0.03666501,-0.01283425,0.0003895116,0.039137688,-0.0472132,-0.039414845,0.066801295,0.010213618,-0.02169509,0.006378248,-0.0042192563,0.035790075,-0.00675534,0.002949201,-0.024423,0.005178536,-0.04519183,0.0035985499,-0.001253066,0.008512687,0.0016526809,0.046075407,-0.011591818,0.017334098,-0.057744708,-0.08285503,-0.026358694,-0.016263952,-0.044906817,-0.03267868,-0.025024483,0.018098606,-0.0067367875,-0.006493996,0.06925527,-0.025470033,-0.012574831,-0.011415397,0.05292712,0.049209945,-0.03597898,0.041817646,0.055097315,0.027370028,0.05197076,0.018578026,0.04256679,-0.0052343938,-0.027391959,-0.014094611,0.014118146,0.017886836,0.026297325,-0.0026516472,0.045721803,-0.028491452,0.026872108,0.07736565,-0.03143416,-0.03791875,-0.042062603,-0.014673085,0.00309231,-0.021026732,-0.018226583,0.029927801,0.0099808,-0.03718442,0.063046634,0.034441613,-0.0072879912,0.00954506,-0.00940539,-0.03356305,0.024549438,-0.035784073,-0.03251745,-0.044824336,-0.023301147,-0.031930342,0.008428958,0.05752455,0.023229104,-0.02479788,-0.056889083,0.027004804,0.0038208012,0.035861816,-0.0068636998,-0.075270854,-0.051734813,0.0026605958,-0.0059392704,0.0033974051,0.0030322922,-0.022594482,-0.018947292,0.018258836,-0.02607884,-0.004453691,-0.00988972,0.028565854,-0.05089764,-0.009670209,-0.018235208,0.033587907,-0.10706105,0.016635343,-0.0019771915,-0.016944153,0.014729884,0.03496607,-0.005470204,-0.02797484,-0.023584384,-0.061877437,0.009372241,0.020770675,0.001958864,0.032250714,-0.05879618,-0.019324016,-0.0013549497,0.0307893,0.035266694,-0.018354587,-0.005910526,0.01286438,0.05002626,0.015181731,0.030283596,-0.02298992,-0.04363595,-0.06150921,0.005800016,-0.015337245,-0.046662856,-0.018472498,-0.013891878,-0.0085159885,-0.10063964,-0.02869976,0.0041169124,-0.057532556,0.041189104,-0.014764609,-0.00026907912,-0.047474377,0.04607559,0.023901353,0.045883562,0.0020105573,0.016997986,0.10660375,-0.013886692,0.025597492,0.02481835,-0.021715477,-0.082623996,-0.030305034,0.02097317,0.00063130463,-0.026421769,0.051103078,-0.018374246,0.0003572185,-0.05510124,-0.0011670847,0.012245199,-0.035186518,0.015304145,0.06104908,0.06755679,-0.023514496,0.023900162,-0.003248892,-0.10072587,-0.03619098,0.046623252,0.05618366,0.041438077,0.010305527,0.014075286,0.061686516,-0.00077829976,-0.046829518,0.0062434995,-0.163358,0.032185454,-0.038805522,-0.011689566,0.071267486,0.039961807,0.019717414,-0.042328525,0.005366476,0.028698713,0.07289683,-0.00810251,0.050046567,-0.050483048,-0.081635706,-0.039358824,-0.03911277,0.02227454,0.03347312,0.027841132,0.02024745,-0.04240487,0.022520287,0.043753866,-0.0009249231,0.034281112,-0.023866098,-0.06622724,0.005798164,0.029708328,0.01951073,-0.012974242,-0.034677114,0.037969805,0.029644122,0.012600792,-0.06865271,-0.020187777,0.037103545,-0.05055867,0.0010974142,0.02068569,0.009534234,-0.038314313,-0.0440208,-0.22715898,0.035472587,-0.027518183,-0.0035944541,0.034629986,0.02107825,0.035221487,-0.09695217,0.023317939,-0.040139705,-0.07029814,0.020127887,0.018508669,-0.01022928,-0.034838118,-0.0010695381,-0.0016715857,-0.008943757,0.016360046,-0.03469275,-0.043638457,0.050924346,0.0056832684,-0.048198245,-0.0073019993,-0.0054796957,-0.019407075,-0.025975898,-0.011174788,-0.037571404,-0.014516246,-0.0069817207,-0.0048181303,-0.022578849,-0.016329275,-0.001304409,0.03258949,-0.009488755,0.0076766456,0.0011542712,0.008228724,0.046159305,0.03639365,0.013424441,-0.014606458,-0.02678939,-0.012486566,-0.000481933,0.011342695,0.01832978,0.017749228,-0.009424203,0.018378682,-0.009921869,0.052801162,0.028116275,0.022322679,0.08646028,0.016720772,-0.0342323,0.016841577,-0.026215984,0.003968888,-0.023264492,-0.0016633546,-0.033557277,-0.031835902,-0.0044783037,-0.02532958,-0.101322405,0.054466918,-0.053997602,0.046338446,0.012475653,0.0124770515,0.008864006,-0.05960197,-0.023035903,-0.023639716,-0.02725871,0.025817174,-0.015642218,-0.0077087646,0.018192835,-0.023493793,0.017556477,0.013823445,-0.015279478,0.028992804,-0.0062494976,0.005179758,0.04408176,0.025148435,-0.002402454,-0.013367898,-0.017777216,-0.0254278,-0.017424826,0.043142077,-0.016324611,0.051582966,0.0043340325,-0.017202167,0.047653146,-0.024828892,0.02228413,0.0033560493,-0.0025364184,0.08472754,0.024047198,-0.023457209,-0.0044789854,-0.012219516,-0.020339692,-0.01708687,-0.019278117,0.056199778,0.034798563,0.0825484,-0.048738092,-0.025027554,-0.041689597,0.023190683,-0.035941023,-0.040606156,0.025111515,-0.020887043,-0.035660133,-0.017812004,0.00090573507,0.039680805,0.024433238,-0.067026116,-0.059943225,0.079174645,-0.050112944,-0.0032292907,-0.017257934,-0.16134909,0.026535453,-0.035767436,0.0431784,0.0092130285,-0.009837736,0.03183748,0.0027666818,0.08739531,0.02210977,-0.013632549,0.018094564,-0.03825601,0.0077553205,-0.020718144,-0.03243071,-0.008344379,-0.061003942,-0.0065532206,-0.0762889,0.00021080275,0.01082228,0.06845701,0.042924866,0.07609846,0.035396345,0.048769988,0.034524564,-0.048106924,0.032558247,0.022270566,-0.0068345442,-0.0090147015,0.015447555,-0.029373381,0.056395113,0.026807522,-0.03308422,-0.05083834,0.0028016882,-0.020440591,-0.032880962,0.015280194,0.024513464,0.0518902,-0.05218138,-0.005764007,0.030872336,0.015310842,0.03297961,0.017902276,0.016298754,-0.05055703,4.2689404,-0.0029549068,-0.040142033,0.029017417,-0.05178097,-0.032306135,-0.05080407,0.00035956502,0.028484693,-0.046323564,0.02619354,0.011323413,0.012432898,-0.0024760969,0.021042094,0.19271392,-0.068450354,-0.022376519,0.024804778,0.01144934,0.327782,0.061916273,0.015992599,0.07323868,-0.0023021598,0.021638101,-0.013040195,-0.03845732,0.039547637,0.014197537,0.028717218,-0.009446093,0.00166014,-0.043608442,0.011274426,0.045905206,-0.070616275,0.013858119,0.04469458,-0.053144276,0.0013786127,-0.014529985,0.020445153,-0.046833232,0.00960717,-0.03207283,-0.112472855,0.018381443,-0.02298049,0.030553482,0.03176693,0.0037022675,-0.0054245107,0.023874182,0.21019053,-0.63649666,-0.026457481,0.00747445,-0.01212654,-0.002413828,0.034758214,0.014443517,0.008700536,0.053260744,0.0018610902,0.02142371,0.000106493564,-0.01777465,0.047848318,-0.0031742852,-0.0026140993,0.022890419,-0.021037173,-0.0118319,0.0012140934,0.0036314058,-0.003980578,-0.031723604,0.03381035,0.021295361,-0.032854438,0.020778714,0.010363727,-0.017889505,0.0069998438,0.054072514,-0.011111129,-0.0035285603,0.00038883614,0.057391316,0.063283995,-0.009696828,0.027293295,0.036833465,0.0312375,0.04057401,0.02299476,0.042353533,0.008010615,-0.004391359,0.12740262,-0.074149415,-0.09190873,-0.01637755,-0.00041041482,0.0009645886,-0.019857055,0.025219522,0.047914293,0.027948812,-0.002648777,-0.065650165,-0.04738254,-0.029457273,0.057200044,0.0022079437,-0.05904585,-0.01309229,0.036223467,-0.06408403,0.05904212,0.016990284,-0.031065935,0.009700311,0.006707772,-0.022737343,-0.0056689694,-0.004361121,-0.0034004913,0.028507635,0.038306627,-0.005004607,0.012698996,-0.016424892,-0.028525334,0.012793907,-0.032831877,-0.005570478,0.01248764,-0.02624868,0.036525566,-0.009510369,-0.04341438,-0.039399914,0.043645468,-0.017227981,0.01653505,-0.0147677455,-0.045708336,0.058962088,-0.007831071,0.028272716,-0.029619887,-0.015008846,-0.02145887,0.04755999,-0.0017988574,0.029640203,-0.062343456,-0.060513806,-0.017739994,-0.02441877,-0.001229383,0.043141343,0.029203892,0.007728475,0.07222576,-0.01983034,0.013075307,0.042726457,-0.05708306,-0.10784515,-0.04828721,-0.048278138,0.017284017,0.02992317,-0.026479252,-0.018005159,-0.011503866,0.053581726,-0.010102955,-0.060622867,0.0031718523,-0.025907272,-0.03269836,-0.044396095,-0.028428262,0.016678903,-0.020318916,-0.0379513,-0.004030712,-0.026140025,0.03201521,0.003301057,-0.022728259,0.0052840104,0.03967977,-0.052215017,-0.067750804,-0.049749903,0.009428,0.013652618,-0.023013664,-0.05592377,-0.031754784,0.031491783,0.022863291,-0.024162572,0.07569241,0.04048407,0.029825848,0.054243572,-0.016943278,0.013333073,-0.011869183,-0.039599642,-0.014560922,-0.026435193,0.029573362,0.0205967,0.0047266018,0.013251914,0.0065325643,0.03830654,0.017388117,-0.011383975,-0.016745515,-0.004585651,-0.010733978,0.032859754,0.015356478,-0.02216158,0.026505461,-0.007947175,-0.04923212,0.020869406,-0.022945847,-0.008197941,-0.07308811,-0.018421734,0.020579863,0.00072964723,-0.04085063,-0.022959022,0.0024036462,0.053575106,0.026408583,-0.05728721,-0.051808722,0.01079558,-0.061625037,-0.074067615,-0.031114079,-0.011739126,0.023187846
sp|Q86DU6|CM3A_CONST,0.085141726,-0.013196149,-0.014703442,-0.022321705,0.0906478,0.014479954,-0.013594502,0.03150275,0.017895747,-0.009582631,-0.046919532,-0.051406186,-0.043860584,0.013447294,0.056374453,-0.055847105,-0.04140485,0.041307602,0.012169318,-0.021986263,0.027941482,-0.008230077,-0.0005567205,-0.0340628,-0.064328104,-0.055836983,0.07307827,0.022989571,-0.03850657,-0.0008585668,-0.0360266,0.03411359,-0.059644215,-0.053073123,-0.0064775036,-0.0138765285,0.027801406,-0.0040373984,0.0084267855,-0.10456613,0.02718011,-0.006329384,-0.00054016826,-0.01447574,0.061631408,0.023857042,0.035807468,0.0056286994,0.010703705,-0.07351884,-0.06385928,-0.030256316,-0.02939674,-0.030553723,0.018562945,-0.0051869154,-0.021702839,-0.056462403,-0.034525156,-0.053147893,-0.009611603,-0.032621786,-0.044947013,0.036333468,-0.0063141617,0.019804733,0.0402879,-0.02381072,-0.032734714,-0.021363035,-0.026471093,0.0011375841,0.0018017014,-0.02033595,0.008097067,0.008355869,-0.065588966,-0.025841814,-0.049641922,0.012242867,-0.046007514,0.01987502,0.031391382,-0.019009355,-0.023449223,-0.01588788,-0.013091382,0.046647154,0.11329723,-0.01614418,0.023971742,-0.016230501,-0.04297256,-0.042488754,-0.025894508,0.008653135,0.118712105,-0.0028572413,0.07256297,-0.03353085,0.029189536,-0.02278115,0.0025143146,0.0024053764,-0.0035725825,-0.039905656,0.013427294,0.0038550885,-0.0029659315,-0.003161958,-0.021278545,0.03480405,0.0043039606,0.022787679,-0.033336826,-0.045561206,0.011202149,0.042619254,-0.005613789,-0.27882975,0.0048975954,0.035432693,-0.019764215,0.018197626,-0.0075530075,-0.05293545,0.03880864,-0.03982864,-0.030317303,-0.018357038,-0.025499659,0.024487035,0.014110667,-0.0051643224,0.01753994,0.006795203,-0.041964162,-0.01383152,-0.013885603,-0.023555923,-0.059896838,-0.0048412243,-0.0052852146,-0.3123295,0.00468287,0.06358734,-0.07974579,0.06466941,0.020489994,-0.014324576,0.009226302,0.057532977,-0.039922066,0.007018131,-0.04239982,-0.018826868,0.0022010496,-0.05909971,-0.080972224,0.01676338,-0.06343269,0.009781448,0.043505915,0.026540069,0.008720445,-0.0074263643,-0.014765488,0.015262138,0.012201985,0.005585197,0.017140077,-0.010871581,-0.056967817,0.007182781,-0.008675454,0.0039065294,-0.038777255,-0.049519666,0.03945462,0.033055454,-0.031603515,-0.030664038,0.0034245206,-0.0646003,-0.005458565,-0.0031521693,-0.058015075,0.006692116,-0.04341613,0.06262804,0.044291977,0.040165845,-0.0125956945,-0.011076882,0.033845227,0.0199193,0.031607263,-0.014831201,0.007014398,-0.003971194,-0.03070983,-0.012431498,0.0151062915,-0.0029604412,-0.036367748,-0.019008344,-0.015143793,0.030316798,-0.07831903,-0.004635606,-0.03597291,-0.046164397,-0.036933348,-0.04433089,-0.061802235,0.019396545,0.012054792,0.053285446,0.022233902,0.03573484,0.065048344,-0.040021256,0.028115965,-0.083320856,-0.017972497,0.079339005,-0.019671395,0.019363282,0.0045006345,0.028841805,0.01852416,0.02671958,-0.010767893,-0.017801682,-0.021003533,0.027350117,-0.11568366,0.012531069,-0.026565135,0.016550671,-0.012555483,0.016400428,0.0017491785,0.054464754,0.033900816,0.015649877,-0.024319693,0.034514263,0.06104613,0.0054524965,0.026297951,0.005351119,-0.01809763,0.060004637,0.02449389,0.0017653855,0.002184774,-0.01113751,0.019676138,0.04643937,0.014522247,-0.018922042,-0.018825728,-0.00807548,-0.03850784,0.017861532,-0.03474343,0.0143993255,-0.005587533,-0.05772094,0.022148034,0.07034723,-0.0048871282,-0.0024947014,0.0055781403,0.059361685,-0.040015396,-0.022219922,-0.02624946,0.10745448,-0.04260811,0.047789853,-0.012848355,0.041281402,-0.026359642,0.047056086,-0.0495434,0.033929158,0.020915253,0.04127946,0.03218783,0.07825873,-0.037170596,0.0013801183,-0.10165475,0.0029820895,-0.0008624625,0.034649335,-0.04884367,-0.014760523,-0.008857387,0.020635124,0.032272894,-0.020136321,0.06380419,0.03751422,-0.038294032,0.045646176,-0.023922645,0.042595547,0.023046196,-0.01312921,-0.014322137,-0.008987776,-0.015830075,-0.010550009,-0.010777035,-0.004497888,-0.03410195,-0.05225338,0.046520002,0.008039693,0.021860724,0.027864883,-0.004529706,0.0031885859,-0.029497191,-0.030595688,0.15555681,0.05235506,-0.045265965,0.066890396,-0.06996599,-0.014956166,-0.006360641,0.020582166,-0.034145933,-0.033573784,-0.024565095,-0.035555955,0.029918216,-0.010759319,-0.012514642,0.043670144,0.08115038,-0.0041866777,-0.012914901,-0.01223129,-0.0034699226,-0.0025400417,-0.055933412,-0.037776366,0.049458817,-0.004174126,-0.03880193,-0.021667296,0.009107695,-0.0048986594,-0.016203128,0.018006263,-0.007898008,0.040525526,-0.069204584,-0.012996988,0.0061744596,0.0511855,-0.018025165,0.020840693,0.003810404,0.0048537278,0.00082244235,-0.036258798,0.044694193,0.008461601,-0.070730485,-0.012276324,-0.023156174,0.053671494,-0.011371271,-0.019870652,0.079871796,-0.010856256,-0.022568427,-0.050008513,0.038164143,0.022636939,-0.032259934,0.056025237,0.014507107,-0.00818404,0.0853724,0.004815936,-0.0262553,0.03205235,-0.02641414,-0.03066873,-0.004351479,0.06009154,-0.006339039,-0.025387064,0.04597027,-0.0085432585,-0.010758283,0.1049688,0.026271565,0.04125848,-0.057391364,-8.581122e-05,0.021989774,-0.009129918,-0.019813519,0.028021686,0.02449508,-0.033823814,0.07351328,0.021411782,-0.01219962,-0.061133448,-0.009677399,-0.030300668,-0.02639957,-0.07044209,-0.02196203,-0.015242793,-0.001586372,-0.08026265,0.004750207,0.045164287,0.017696816,0.0048511717,-0.055629235,0.027368262,0.02944352,0.017604638,0.012430267,-0.10186227,-0.04564668,-0.0040151817,-0.033524793,-2.8150876e-05,-0.00081205706,-0.00818657,-0.002257417,0.022435864,-0.04987354,0.016648162,-0.0050660386,0.065032996,-0.051298283,-0.00046734413,0.0064093713,0.0050678295,-0.068937786,0.037018202,-0.0057200463,0.0021012572,-0.0158614,0.04355151,-0.020644763,-0.031066634,-0.014774732,-0.04941388,0.0176943,0.010774617,0.03388111,0.03954893,-0.019765541,-0.008262729,0.0070600207,0.028641706,0.04092829,-0.034916803,0.03476333,0.035094008,0.051697206,0.0052834484,0.076782204,-0.009381352,-0.0008982722,-0.052898925,-0.01808235,-0.027966086,-0.015252951,-0.045445085,-0.030872758,-0.011069927,-0.06253348,0.017485885,0.046951536,-0.029891325,0.011199565,-0.031626604,-0.0012895894,-0.032110788,0.09196722,-0.04701349,0.027731743,-0.02488914,-0.02978112,0.17046778,-0.03896836,0.05580903,-0.01978554,-0.024714543,-0.010169833,-0.019769091,-0.0022994447,-0.013844935,-0.07353653,-0.013100637,-0.0026498483,0.03730883,-0.03671819,-0.016502619,0.0014145954,0.0025240502,-0.005905923,0.069834255,0.0351262,-0.0060286643,0.009098769,0.014583248,-0.04141401,-0.030409012,0.020682732,0.046515424,0.038981166,-0.0018596101,0.032752663,0.056055184,0.007504633,-0.058564097,0.0032202473,-0.14983116,0.053535525,-0.010233566,0.0046354136,0.12074282,0.03615963,-0.016647315,0.02670358,-0.0008972363,-0.01937464,0.054118525,0.010365564,0.066891976,-0.056046695,-0.05777594,-0.0021738752,-0.02543061,-0.042199578,0.05869044,0.057925116,0.009876151,-0.02839801,-0.006377659,0.01991382,-0.0071358476,0.046014953,-0.030912854,-0.081913404,0.006216787,-0.0017692919,-0.01057772,-0.045373667,-0.048491687,0.05959723,0.023705328,-0.007914049,-0.10185726,-0.010676471,0.011368621,-0.096619494,0.026262624,0.02886968,0.007882582,-0.030359834,-0.025828552,-0.3052446,0.050260745,-0.027484346,-0.012944385,0.02633621,0.01926394,0.046014905,-0.082430676,-0.030348422,0.006464369,-0.056527022,0.0022053923,-0.028446332,0.011502409,-0.023741098,0.0030106828,-0.01906654,-0.0043791393,-0.02081787,-0.029563468,-0.06278151,-0.012465943,0.051560335,-0.0086774435,0.020110693,-0.02035221,-0.048619762,-0.037399393,-0.015200402,-0.04043591,-0.016086737,0.009656291,-0.0063475324,0.023593009,-0.02703211,-0.008621122,0.022307348,-0.027370675,-0.011629099,0.0035083294,-0.015477381,0.0022574752,0.05705128,0.04666693,-0.034077827,-0.020972203,0.02068429,0.027859682,0.027771143,0.02935939,0.039419618,-0.02433088,0.034385454,-0.0066765537,0.04122926,0.0040545054,0.015282888,0.070158206,-0.007983412,-0.045392305,-0.0035552024,0.0045596375,-0.0011574725,-0.026203753,-0.008575669,-0.02385602,-0.011076544,0.009965618,-0.040500347,-0.07427361,0.03515328,-0.031884868,0.028723694,0.014559339,-0.022397028,-0.016480958,0.00071204064,-0.053231027,-0.018186297,-0.014411942,0.0778786,-0.03950586,0.007304735,0.031540826,0.017351208,0.0036487135,-0.00632039,-0.004414816,0.053207144,0.041957606,-0.016075054,0.023096632,0.015174274,0.007148719,-0.0129090585,-0.044649746,-0.028249022,-0.035181925,0.005274175,-0.016256815,-0.0020511774,-0.009798759,0.0035019428,0.043145765,0.0085189305,0.0024847377,0.073100634,0.051177066,0.07780316,0.025023943,-0.01401547,-0.016665356,-0.02941725,-0.05472945,1.1838972e-06,-0.008818827,0.05865599,0.04510783,0.077171154,-0.07219776,-0.027716601,-0.038728498,0.07211628,-0.019302154,-0.047694907,0.06600235,-0.021634974,-0.037707906,-0.02092187,-0.03600863,0.05028069,0.043010943,-0.0671051,-0.062055226,0.05283049,-0.055838667,0.008178516,-0.012761519,-0.2802557,0.02339145,-0.028502513,-0.032534305,0.0018105431,-0.002253569,0.042754702,-0.00579559,0.06566705,0.05510418,-0.025558606,0.039820265,-0.02095095,0.027205206,0.0064642094,0.022998722,0.010293887,-0.060229734,-0.032629956,-0.035464324,0.009299741,-0.005954985,0.08323561,-0.019427737,0.050838336,0.03220358,0.015691482,-0.0012863028,-0.058537044,0.05408111,0.009813189,-0.031479657,-0.0142513625,0.015214169,0.0010024217,0.064468674,0.036147155,-0.044704985,-0.01647845,0.014266162,-0.040893026,0.004828129,0.0059610372,0.008719772,0.03888613,-0.026531724,-0.013744203,0.030484898,0.03738207,0.02797252,0.03255702,0.03508344,-0.045243096,3.950079,0.006312867,-0.002733013,0.0152304955,-0.01946687,-0.0680697,-0.034613337,0.02447678,-0.035251696,-0.049269214,0.068606414,0.01981315,0.0068584187,-0.036753368,0.0057370733,0.13545257,-0.063468665,-0.011537167,0.028223097,-0.00057064294,0.27969953,0.06619957,0.06598099,0.07770714,-0.041176744,0.003836305,-0.031408213,-0.057995822,0.042909857,0.041760065,-0.005633589,-0.010456503,-0.029761765,-0.056506615,0.033737622,0.033219352,-0.04952063,0.011156204,0.044580534,-0.030396763,0.015805393,0.007590065,0.032020513,-0.055417113,-0.032791596,-0.019913793,-0.09419784,0.039979585,0.017850157,0.022977483,-0.0023636818,0.0033810688,-0.006987699,0.028658714,0.10145246,-0.4151716,-0.028251193,-0.013288487,0.011936212,-0.004174392,0.07167589,-0.0031968597,-0.015429866,0.06255104,0.04042566,0.024777645,0.018858707,-0.033864204,0.052258283,-0.03449199,-0.002249081,-0.017861204,-0.03758579,0.010248359,0.008735643,-0.002614104,-0.01779271,0.0070251585,0.024815017,0.03092337,-0.04484313,0.039714683,0.024273813,0.003130387,0.015578013,0.0009441352,0.03739931,-0.018089442,-0.036737382,0.03314728,0.06642118,0.021218749,-0.023277717,0.045780674,0.025095765,0.0025172373,0.067512445,0.011084455,-0.031410117,0.0054876464,0.09144013,-0.10240407,-0.082123786,-0.0396431,-0.0309179,-0.018457087,-0.016080257,0.019418964,0.057077743,0.018375823,0.002401507,-0.061966274,-0.07654514,-0.048081297,0.054124534,0.018159417,-0.008261576,-0.0192822,0.04638813,-0.05261855,0.040584926,0.016997945,-0.0027574087,0.0023092865,0.0010200898,-0.0010220307,0.013059375,0.020282134,-0.0021066638,0.077189036,0.054479897,-0.0014958438,0.004604424,-0.013883759,-0.009282192,-0.010887308,-0.026958453,0.031421732,0.031323854,-0.040400032,0.036004815,-0.022972634,-0.041433495,-0.03708519,0.010693048,-0.018379103,0.032044295,-0.036035005,-0.041213565,0.023162197,0.013357302,0.008519997,0.0027970204,0.050565246,-0.009440648,0.033801537,0.0075776237,0.054719023,-0.011055929,-0.05645609,-0.010806328,-0.0050719674,0.009928371,0.035508055,0.044583157,0.023959676,0.039381992,-0.030906849,0.016079785,0.048102595,-0.045306347,-0.11616989,-0.018173775,-0.023846576,0.020435115,-0.0317066,-0.031921964,-0.018687973,0.023314076,0.008759733,-0.018993277,-0.036592636,0.025561644,-0.023599554,0.0016356695,-0.0009923689,-0.028828908,0.0059823506,-0.023474544,-0.033776987,-0.012078677,-0.029720573,0.010455826,0.04837094,-0.024147585,-0.017988129,0.020032547,-0.0761617,-0.04644861,-0.0069911084,0.009972715,0.033879813,-0.00055637676,-0.10379367,-0.020391036,-0.0037046312,0.048794694,-0.044349376,0.05596036,0.0038794128,0.0073286407,0.030041082,-0.012417488,-0.00056065735,-0.022792475,-0.022734096,-0.02417456,-0.04660286,-0.028423192,0.06308718,0.007251021,-0.0141518405,0.006343588,0.043769494,-0.021529531,-0.018066397,-0.0025902905,-0.027399762,-0.00022914042,0.031418335,-0.014706999,0.023749985,0.0253611,0.02600801,0.009635977,0.034634314,-0.017511165,-0.01949468,-0.05001927,-0.014695754,-0.006117844,-0.02746554,-0.050596055,-0.032993123,0.015792223,0.027292604,0.0075245784,-0.019968716,-0.0931927,-0.011246337,-0.07576507,-0.04085026,-0.079834424,-0.011495195,0.04499411
